tree
version=v4
num_class=1
num_tree_per_iteration=1
label_index=0
max_feature_idx=9
objective=regression
feature_names=lag_7 lag_14 lag_28 rolling_mean_7 rolling_mean_28 month day_of_week is_weekend sell_price is_promo
feature_infos=[0:39] [0:39] [0:39] [0:23.285714285714285] [0.035714285714285712:20.857142857142858] [1:12] [0:6] [0:1] [4.3183968873471326:49.870859952668532] [0:1]
tree_sizes=2788 2895 2912 2903 2926 2925 2895 2904 2917 2940 2938 2905 2909 2911 2929 2917 2917 2917 2888 2940 2916 2886 2911 2901 2931 2884 2872 2899 2937 2865 2894 2859 2896 2915 2794 2812 2839 2839 2862 2833 2808 2815 2913 2870 2872 2834 2816 2839 2840 2837 2800 2837 2828 2812 2831 2825 2769 2797 2772 2760 2841 2818 2811 2896 2780 2739 2813 2846 2770 2755 2778 2806 2765 2748 2781 2806 2832 2779 2835 2831 2776 2792 2778 2723 2836 2781 2782 2793 2750 2786 2769 2764 2780 2781 2831 2792 2825 2763 2778 2774 2793 2770 2800 2820 2797 2854 2903 2782 2792 2749 2767 2770 2760 2751 2784 2820 2818 2793 2889 2746 2773 2768 2811 2824 2784 2833 2852 2822 2828 2825 2775 2779 2775 2767 2745 2810 2783 2770 2826 2812 2801 2733 2794 2761 2800 2771 2748 2782 2773 2835 2773 2779 2813 2819 2797 2763 2845 2769 2815 2843 2795 2803 2744 2836 2828 2810 2814 2803 2885 2794 2782 2782 2823 2782 2764 2824 2827 2770 2758 2798 2789 2853 2820 2782 2769 2798 2795 2834 2842 2749 2809 2790 2773 2775 2771 2779 2892 2789 2829 2759 2751 2791 2812 2792 2780 2852 2819 2737 2811 2828 2801 2760 2803 2830 2796 2787 2837 2822 2816 2794 2840 2800 2764 2764 2774 2800 2773 2779 2743 2835 2802 2782 2816 2791 2828 2808 2759 2828 2808 2861 2776 2761 2799 2813 2774 2780 2817 2789 2781 2802 2798 2817 2759 2812 2761 2779 2830 2774 2799 2767 2788 2804 2833 2772 2813 2747 2778 2830 2815 2821 2817 2841 2771 2810 2790 2805 2799 2781 2805 2791 2797 2757 2773 2801 2762 2773 2810 2788 2871 2817 2791 2822 2778 2791 2779 2806 2824 2815 2801 2786 2858 2832 2747 2816 2808 2779 2808 2791 2825 2806 2782 2793 2765 2811 2763 2795 2757 2787 2843 2792 2743 2756 2754 2842 2820 2826 2758 2804 2842 2801 2788 2787 2753 2804 2773 2811 2787 2753 2783 2834 2795 2798 2732 2810 2826 2781 2849 2827 2782 2814 2756 2806 2779 2744 2779 2743 2784 2761 2769 2782 2782 2792 2760 2795 2769 2855 2778 2745 2784 2779 2744 2795 2798 2777 2822 2777 2786 2808 2775 2807 2846 2792 2796 2775 2816 2755 2811 2766 2824 2787 2842 2791 2763 2798 2790 2786 2817 2797 2817 2751 2766 2850 2783 2753 2794 2812 2824 2797 2750 2789 2776 2792 2819 2836 2781 2806 2814 2780 2760 2828 2752 2775 2850 2751 2756 2780 2750 2796 2829 2811 2792 2846 2787 2778 2820 2787 2776 2809 2801 2776 2783 2814 2800 2778 2772 2770 2794 2809 2804 2785 2744 2790 2787 2780 2798 2799 2796 2762 2757 2772 2797 2780 2829 2785 2810 2858 2791 2790 2801 2836 2882 2766 2789 2766 2811 2825 2822 2781 2744 2790 2764 2838 2800 2777 2771 2776 2752 2787 2801 2854 2817 2785 2793 2796 2794 2774 2797 2770 2789 2783

Tree=0
num_leaves=31
num_cat=0
split_feature=4 4 4 4 1 9 6 4 9 9 4 0 6 4 8 0 4 6 6 6 4 4 4 6 6 4 9 4 4 6
split_gain=402716 107497 106529 27426.1 18097.9 15741.6 14824 10279.8 8831.49 5820.03 5499.71 5270.75 4557.02 4369.26 3804.41 3623.87 3329.28 2594.87 2535.37 2374.67 2307.14 2067.79 1624.13 1573.44 1363.5 1314.93 1183.68 1172.81 1165.3 1141.63
threshold=5.1964285714285721 2.8035714285714293 9.5892857142857171 16.000000000000004 1.5000000000000002 1.0000000180025095e-35 1.5000000000000002 6.4107142857142874 1.0000000180025095e-35 1.0000000180025095e-35 3.8750000000000004 1.5000000000000002 1.5000000000000002 7.1250000000000009 48.3078994661306 2.5000000000000004 3.7678571428571432 1.5000000000000002 5.5000000000000009 5.5000000000000009 11.732142857142859 1.4464285714285716 4.1250000000000009 5.5000000000000009 1.5000000000000002 1.8035714285714288 1.0000000180025095e-35 7.7321428571428585 2.0535714285714293 2.5000000000000004
decision_type=2 2 2 2 2 2 2 2 2 2 2 2 2 2 2 2 2 2 2 2 2 2 2 2 2 2 2 2 2 2
left_child=1 4 5 9 11 7 16 17 10 20 19 21 27 -7 -5 24 -3 -2 29 -8 -4 -1 -10 -14 -6 -26 -18 -9 -17 -12
right_child=2 6 3 14 15 13 8 12 22 -11 18 -13 23 -15 -16 28 26 -19 -20 -21 -22 -23 -24 -25 25 -27 -28 -29 -30 -31
leaf_value=3.4337592710431237 3.8355176941867435 3.6125887484446269 4.3985982084516166 5.9267705507309794 3.5074134169071591 4.2091354144365329 3.7734466372651312 3.9233249502159078 3.9277945778797387 4.9764288318497556 3.81155881356091 3.5626000713324757 4.1521015708373366 4.5348338246522779 5.1380071015518709 3.6262113220342362 3.712771323112829 3.9631463913616565 3.7556786485210165 3.6576189283011815 4.6051880982098776 3.5077321337771212 4.088097523903512 4.0279210129398635 3.563459332115591 3.6416874359571501 3.8616091075611432 4.0664335041544541 3.7003435582097097 3.8900961989252338
leaf_weight=11298 2234 4366 1756 68 2088 1231 8907 1726 1482 241 2477 6817 5224 619 607 3850 5319 5552 2406 2209 781 5678 1102 1268 4960 3791 594 857 4720 7322
leaf_count=11298 2234 4366 1756 68 2088 1231 8907 1726 1482 241 2477 6817 5224 619 607 3850 5319 5552 2406 2209 781 5678 1102 1268 4960 3791 594 857 4720 7322
internal_value=3.7585 3.65328 4.13539 4.64573 3.54678 4.04121 3.78043 4.01082 3.82075 4.50681 3.80131 3.48833 4.08315 4.31811 5.21747 3.61845 3.67882 3.92653 3.84766 3.75043 4.4622 3.4585 3.99616 4.12785 3.58002 3.59735 3.72772 3.97081 3.66704 3.87024
internal_weight=101550 79386 22164 3453 43202 18711 36184 16861 25905 2778 23321 23793 9075 1850 675 19409 10279 7786 12205 11116 2537 16976 2584 6492 10839 8751 5913 2583 8570 9799
internal_count=101550 79386 22164 3453 43202 18711 36184 16861 25905 2778 23321 23793 9075 1850 675 19409 10279 7786 12205 11116 2537 16976 2584 6492 10839 8751 5913 2583 8570 9799
is_linear=0
shrinkage=1


Tree=1
num_leaves=31
num_cat=0
split_feature=4 4 4 4 0 6 9 9 4 4 9 2 6 4 8 4 4 6 6 6 4 6 4 6 4 6 9 9 6 6
split_gain=326996 96487.2 78409.2 22215.1 15408.1 12637 12062.9 7888.64 6238.68 5249.11 4714.23 4527.14 3481.05 3129.39 3081.57 3055.86 2828.11 2596.51 2472.75 2353.32 1898.29 1838.1 1755.75 1730.7 1420.74 1235.84 957.417 955.912 955.139 946.206
threshold=5.4464285714285721 2.8750000000000004 9.5892857142857171 16.000000000000004 1.5000000000000002 1.5000000000000002 1.0000000180025095e-35 1.0000000180025095e-35 7.0178571428571432 4.0892857142857144 1.0000000180025095e-35 1.5000000000000002 2.5000000000000004 2.0535714285714293 48.3078994661306 4.0178571428571432 7.4821428571428585 1.5000000000000002 1.5000000000000002 5.5000000000000009 12.267857142857144 5.5000000000000009 1.6250000000000002 5.5000000000000009 4.1250000000000009 2.5000000000000004 1.0000000180025095e-35 1.0000000180025095e-35 1.5000000000000002 5.5000000000000009
decision_type=2 2 2 2 2 2 2 2 2 2 2 2 2 2 2 2 2 2 2 2 2 2 2 2 2 2 2 2 2 2
left_child=1 4 6 10 11 15 8 9 18 19 20 22 -6 29 -5 -3 -8 -10 -2 25 -4 26 -1 -11 -9 -7 -15 -17 -16 -14
right_child=2 5 3 14 12 7 16 24 17 23 -12 -13 13 21 28 27 -18 -19 -20 -21 -22 -23 -24 -25 -26 -27 -28 -29 -30 -31
leaf_value=-0.28852464153184199 0.10438474545933607 -0.11633010090813892 0.5876551654685529 1.9514405531041765 -0.19083487719222691 -0.034901318023590387 0.4517409595246944 0.15954362690832208 0.21949918820844802 0.11680204665562682 1.0961330365590534 -0.1734931687688295 -0.12684510697290866 -0.034927124163511597 1.0436705564287887 -0.023432976149421362 0.74808260575770269 0.36325082574472872 0.22386662896273513 -0.082242801474806726 0.79716653488643785 -0.16216083724108923 -0.2159721150461294 0.019302576260026356 0.30518635767095287 0.045771409192874472 0.10499676822961033 0.11535232291299223 1.3210722846880245 -0.23731048279070441
leaf_weight=12657 2422 5260 1984 68 5584 2529 1152 1399 1761 9213 241 6896 7487 4685 174 4839 447 4386 6081 2523 553 1107 4529 2269 1285 7622 546 553 433 865
leaf_count=12657 2422 5260 1984 68 5584 2529 1152 1399 1761 9213 241 6896 7487 4685 174 4839 447 4386 6081 2523 553 1107 4529 2269 1285 7622 546 553 433 865
internal_value=4.55234e-10 -0.0880405 0.365746 0.798503 -0.187862 0.0300562 0.273783 0.0666306 0.245318 0.0485594 0.673473 -0.24194 -0.123626 -0.098079 1.31307 -0.0621009 0.534583 0.322069 0.189833 0.00419013 0.633323 -0.0450958 -0.269405 0.0975348 0.229272 0.0256728 -0.0203222 -0.00919925 1.24155 -0.138286
internal_weight=101550 81848 19702 3453 44356 37492 16249 26840 14650 24156 2778 24082 20274 14690 675 10652 1599 6147 8503 12674 2537 6338 17186 11482 2684 10151 5231 5392 607 8352
internal_count=101550 81848 19702 3453 44356 37492 16249 26840 14650 24156 2778 24082 20274 14690 675 10652 1599 6147 8503 12674 2537 6338 17186 11482 2684 10151 5231 5392 607 8352
is_linear=0
shrinkage=0.1


Tree=2
num_leaves=31
num_cat=0
split_feature=4 4 4 4 4 6 1 9 9 9 4 9 6 0 4 8 6 6 6 4 6 4 6 4 4 6 2 4 6 6
split_gain=266619 80324.9 57673.3 18592.2 14178.2 10543.6 9999.66 8671.75 4956.06 3935.84 3725.54 3589.57 3220.46 2763.73 2611.44 2496.07 2371.39 2100.47 1744.81 1724.6 1682.75 1543.73 1519.43 1417.06 1160.39 1101.97 1027.65 924.495 893.632 850.791
threshold=4.7678571428571432 9.3392857142857171 2.5178571428571432 16.000000000000004 6.2321428571428585 1.5000000000000002 1.5000000000000002 1.0000000180025095e-35 1.0000000180025095e-35 1.0000000180025095e-35 3.5535714285714293 1.0000000180025095e-35 1.5000000000000002 1.0000000180025095e-35 3.4464285714285716 48.3078994661306 1.5000000000000002 2.5000000000000004 5.5000000000000009 11.732142857142859 5.5000000000000009 1.4464285714285716 5.5000000000000009 7.3392857142857144 3.3035714285714293 5.5000000000000009 1.5000000000000002 8.3035714285714306 2.5000000000000004 2.5000000000000004
decision_type=2 2 2 2 2 2 2 2 2 2 2 2 2 2 2 2 2 2 2 2 2 2 2 2 2 2 2 2 2 2
left_child=2 4 6 9 11 14 13 12 10 19 18 16 -6 -1 -4 -5 -2 -8 29 -3 28 -19 -23 -14 -10 -18 -15 -9 -12 -7
right_child=1 3 5 15 7 8 17 27 24 -11 20 -13 23 26 -16 -17 25 21 -20 -21 -22 22 -24 -25 -26 -27 -28 -29 -30 -31
leaf_value=-0.26246780435608891 0.040147125038045683 0.51166571533372718 -0.15175102888220582 1.756296474793378 0.16455006739799527 -0.065056403982517788 -0.18450992158670365 0.51880261758029866 0.070180588530866728 0.97472616989530769 0.016252731086669876 0.28838616127234057 0.25044863128066697 -0.21558435254852362 -0.049821992025828522 1.1173981189899624 0.15897735615973724 -0.15241653092330418 -0.11112072085737078 0.68841608887140027 -0.02416480429747378 -0.057829624902279608 -0.18135581637570961 0.3407743876802829 0.20910073409814467 0.066516409474439528 -0.15333472152332531 0.78120203584055359 0.085326418698409068 0.0073659134089983248
leaf_weight=10979 3286 1883 4344 68 2760 2158 4138 894 950 255 2502 1281 3764 6988 5965 607 6547 3997 2156 781 2476 6720 1169 3225 1638 1605 4274 158 7450 6532
leaf_count=10979 3286 1883 4344 68 2760 2158 4138 894 950 255 2502 1281 3764 6988 5965 607 6547 3997 2156 781 2476 6720 1169 3225 1638 1605 4274 158 7450 6532
internal_value=2.97998e-10 0.268473 -0.0977938 0.708782 0.201191 -0.00725874 -0.183374 0.285444 0.0268285 0.599409 0.0122308 0.129643 0.25601 -0.226765 -0.0927728 1.18176 0.111865 -0.123148 -0.0305969 0.563483 0.0496069 -0.101786 -0.0761339 0.292128 0.158106 0.140773 -0.19196 0.558212 0.0679608 -0.0106188
internal_weight=101550 27114 74436 3594 23520 36171 38265 10801 25862 2919 23274 12719 9749 22241 10309 675 11438 16024 10846 2664 12428 11886 7889 6989 2588 8152 11262 1052 9952 8690
internal_count=101550 27114 74436 3594 23520 36171 38265 10801 25862 2919 23274 12719 9749 22241 10309 675 11438 16024 10846 2664 12428 11886 7889 6989 2588 8152 11262 1052 9952 8690
is_linear=0
shrinkage=0.1


Tree=3
num_leaves=31
num_cat=0
split_feature=4 4 4 4 1 6 9 9 4 4 4 9 6 2 4 8 6 6 4 6 4 4 6 6 6 6 6 4 9 2
split_gain=216310 66964.9 48272.7 13522 10712.2 8527.28 7918.41 5499.3 4054.66 4047.11 3350.65 3179.97 2309.12 2299.81 2291.4 2021.82 1968.58 1832.92 1676.46 1151.39 1125.19 1105.24 1046.12 997.202 993.419 968.554 968.339 913.912 904.256 844.281
threshold=5.6250000000000009 2.8750000000000004 9.9821428571428594 16.000000000000004 1.5000000000000002 1.5000000000000002 1.0000000180025095e-35 1.0000000180025095e-35 7.3392857142857144 4.3392857142857144 1.3035714285714288 1.0000000180025095e-35 1.5000000000000002 2.5000000000000004 4.0178571428571432 48.3078994661306 1.5000000000000002 5.5000000000000009 7.4821428571428585 1.5000000000000002 12.267857142857144 4.2321428571428585 5.5000000000000009 5.5000000000000009 1.5000000000000002 5.5000000000000009 2.5000000000000004 1.6964285714285716 1.0000000180025095e-35 1.0000000180025095e-35
decision_type=2 2 2 2 2 2 2 2 2 2 2 2 2 2 2 2 2 2 2 2 2 2 2 2 2 2 2 2 2 2
left_child=1 4 6 11 10 14 8 9 16 17 29 20 -12 24 -3 -5 -2 26 -8 -10 -4 -9 -18 -14 -6 -11 -7 -26 -15 -1
right_child=2 5 3 15 13 7 18 21 19 25 12 -13 23 28 -16 -17 22 -19 -20 -21 -22 -23 -24 -25 27 -27 -28 -29 -30 -31
leaf_value=-0.2551296331147182 0.097243388155928381 -0.094709519547314713 0.48464146971979649 1.5806668794768699 -0.18831599012607661 -0.020987816393433209 0.38305299625901168 0.133189518712897 0.20958903681874785 0.10884545299453843 -0.20719385849470645 0.93211329881654403 -0.090342983180685801 -0.0709333882930617 -0.0035931570564169107 1.0056583496255578 0.22245839481263149 -0.058989199240463322 0.6104961072726639 0.31686804999682427 0.64860828047850683 0.25968021903977251 0.11997975507330511 -0.1726539607704021 -0.14492433053827689 0.029045277373582312 0.043627291638564845 -0.082079003255386293 0.036108782669123658 -0.20053240910600612
leaf_weight=7555 2487 5260 1721 68 2221 3093 1002 1538 1402 7689 5584 209 4176 7882 5807 607 5065 3059 479 3493 553 1254 1240 2273 4679 1896 9272 4578 877 4531
leaf_count=7555 2487 5260 1721 68 2221 3093 1002 1538 1402 7689 5584 209 4176 7882 5807 607 5065 3059 479 3493 553 1254 1240 2273 4679 1896 9272 4578 877 4531
internal_value=9.68471e-10 -0.068487 0.31102 0.666713 -0.152456 0.0273381 0.236965 0.0568906 0.213198 0.0420301 -0.197471 0.558824 -0.160117 -0.098806 -0.0468996 1.06359 0.172585 0.0103183 0.456615 0.286142 0.524516 0.190002 0.202304 -0.119354 -0.128255 0.0930603 0.0274644 -0.113845 -0.0602157 -0.234661
internal_weight=101550 83224 18326 3158 44356 38868 15168 27801 13687 25009 24119 2483 12033 20237 11067 675 8792 15424 1481 4895 2274 2792 6305 6449 11478 9585 12365 9257 8759 12086
internal_count=101550 83224 18326 3158 44356 38868 15168 27801 13687 25009 24119 2483 12033 20237 11067 675 8792 15424 1481 4895 2274 2792 6305 6449 11478 9585 12365 9257 8759 12086
is_linear=0
shrinkage=0.1


Tree=4
num_leaves=31
num_cat=0
split_feature=4 4 4 4 6 4 0 9 4 9 9 4 9 6 1 6 8 6 6 9 6 4 6 4 6 6 6 9 6 6
split_gain=175983 48724.6 43357.3 12112.4 7746.72 7124.75 6163.12 5481.43 4379.69 2755.88 2559.45 2374.14 2149.15 2003.27 1977.82 1804.03 1637.67 1579.07 1322.04 1249.29 1177.29 1133.53 1132.23 1090.06 1007.12 857.844 773.663 739.834 724.99 706.157
threshold=5.0178571428571432 9.3392857142857171 2.4464285714285716 16.000000000000004 1.5000000000000002 6.4107142857142874 1.5000000000000002 1.0000000180025095e-35 3.6250000000000004 1.0000000180025095e-35 1.0000000180025095e-35 3.5892857142857149 1.0000000180025095e-35 1.5000000000000002 1.0000000180025095e-35 5.5000000000000009 48.3078994661306 2.5000000000000004 2.5000000000000004 1.0000000180025095e-35 5.5000000000000009 11.732142857142859 5.5000000000000009 1.4821428571428574 5.5000000000000009 5.5000000000000009 1.5000000000000002 1.0000000180025095e-35 2.5000000000000004 2.5000000000000004
decision_type=2 2 2 2 2 2 2 2 2 2 2 2 2 2 2 2 2 2 2 2 2 2 2 2 2 2 2 2 2 2
left_child=2 5 6 10 11 12 14 13 15 20 21 -4 18 -7 -1 19 -5 -8 -2 29 28 -3 -15 -19 -25 -20 -18 -13 -10 -6
right_child=1 3 4 16 8 7 17 -9 9 -11 -12 27 -14 22 -16 -17 26 23 25 -21 -22 -23 -24 24 -26 -27 -28 -29 -30 -31
leaf_value=-0.21603176038567731 0.061682105837862614 0.41620492447074658 -0.12005614216744756 1.4226002149722157 -0.054916428270817191 0.13781900048021256 -0.15825145157786427 0.46429854766325207 0.018806004462120184 0.19102143848771291 0.78984395888506198 -0.040698916808474449 0.25394776042261563 0.26346529725715462 -0.1557763887786415 -0.087748289699213819 0.72699784526879763 -0.12412466195789638 0.1595821514256042 0.10245350685033144 -0.010506386007035649 0.55950038839851846 0.15741758412100096 -0.044405745470577095 -0.15081224018111677 0.067656737004717193 0.97665937746644849 0.073796825661401083 0.078188329977190191 0.006894783686869993
leaf_weight=10877 4117 1883 5344 68 2458 2540 3843 961 2747 1510 255 5569 1069 5157 10913 2738 174 4249 4093 1132 2699 781 1251 6044 1043 1350 433 628 8173 7451
leaf_count=10877 4117 1883 5344 68 2458 2540 3843 961 2747 1510 255 5569 1069 5157 10913 2738 174 4249 4093 1132 2699 781 1251 6044 1043 1350 433 628 8173 7451
internal_value=3.67515e-10 0.235787 -0.0734973 0.575465 -0.00195303 0.176346 -0.151776 0.237347 0.0256984 0.0628448 0.487185 -0.0712146 0.119477 0.212973 -0.185854 -0.0150874 0.957227 -0.102856 0.104441 0.00293142 0.0486333 0.458215 0.242762 -0.0840765 -0.0600657 0.136782 0.905092 -0.029096 0.0632503 -0.00843794
internal_weight=101550 24132 77418 3594 40449 20538 36969 9909 28908 15129 2919 11541 10629 8948 21790 13779 675 15179 9560 11041 13619 2664 6408 11336 7087 5443 607 6197 10920 9909
internal_count=101550 24132 77418 3594 40449 20538 36969 9909 28908 15129 2919 11541 10629 8948 21790 13779 675 15179 9560 11041 13619 2664 6408 11336 7087 5443 607 6197 10920 9909
is_linear=0
shrinkage=0.1


Tree=5
num_leaves=31
num_cat=0
split_feature=4 4 4 4 4 6 2 9 4 9 9 6 9 0 4 8 6 6 6 6 4 6 6 6 4 9 4 6 6 4
split_gain=143103 43029.7 31222.4 10390.2 7157.36 6126.57 4999.44 4442.04 3233.36 2318.9 2223.53 1845.52 1769.47 1713.57 1703.9 1326.52 1227.53 1173.14 1161.56 1109.66 1102.99 1021.42 858.46 816.775 718.394 712.215 681.336 677.9 667.633 736.123
threshold=4.7678571428571432 9.0535714285714306 2.3750000000000004 16.000000000000004 6.0535714285714297 1.5000000000000002 1.5000000000000002 1.0000000180025095e-35 3.2678571428571432 1.0000000180025095e-35 1.0000000180025095e-35 1.5000000000000002 1.0000000180025095e-35 1.0000000180025095e-35 3.3750000000000004 48.3078994661306 2.5000000000000004 2.5000000000000004 5.5000000000000009 5.5000000000000009 11.053571428571431 5.5000000000000009 4.5000000000000009 4.5000000000000009 1.3392857142857146 1.0000000180025095e-35 7.1607142857142874 1.5000000000000002 1.5000000000000002 1.4821428571428574
decision_type=2 2 2 2 2 2 2 2 2 2 2 2 2 2 2 2 2 2 2 2 2 2 2 2 2 2 2 2 2 2
left_child=2 4 6 9 12 14 13 11 19 20 18 -6 16 -1 -4 -5 -2 -8 -10 25 -3 26 -18 24 -19 -7 -13 -9 -15 -30
right_child=1 3 5 15 7 8 17 27 10 -11 -12 21 -14 28 -16 -17 22 23 -20 -21 -22 -23 -24 -25 -26 -27 -28 -29 29 -31
leaf_value=-0.19741136934596151 0.037688925938446041 0.34845923379919264 -0.11770945163044128 1.2803401707288098 0.11401939286219781 -0.020946621352007727 -0.14347490299906995 0.26990601030785011 0.044483200649816097 0.69699504251197242 0.15189391145134937 0.19276575139325969 0.20608383963673804 -0.18370854018700711 -0.03841792796726623 0.81458325050709868 0.14434610031584794 -0.10029105057623953 -0.024670606719330569 -0.091723824424656097 0.4725382065473584 0.13301834679969549 0.068470749545226361 -0.11341673842240484 -0.031631189875676223 0.074015298284446154 0.26023447915845316 0.44124066950824425 -0.15068740016676901 -0.089052696027279526
leaf_weight=10802 4531 1637 4755 68 2967 7782 3393 327 12227 295 1682 3072 1180 2769 6302 607 3008 2317 3031 2140 1274 1486 2957 3729 4452 879 2919 786 5020 3156
leaf_count=10802 4531 1637 4755 68 2967 7782 3393 327 12227 295 1682 3072 1180 2769 6302 607 3008 2317 3031 2140 1274 1486 2957 3729 4452 879 2919 786 5020 3156
internal_value=1.32741e-10 0.196689 -0.0716456 0.504914 0.145201 -0.00957393 -0.139221 0.20099 0.0155138 0.429836 0.0427748 0.180751 0.0899802 -0.169156 -0.0725168 0.861504 0.0769274 -0.0923575 0.0307458 -0.0272416 0.402762 0.207231 0.106733 -0.0758361 -0.0551332 -0.011309 0.225639 0.390902 -0.141269 -0.126896
internal_weight=101550 27114 74436 3881 23233 38798 35638 11557 27741 3206 16940 10444 11676 21747 11057 675 10496 13891 15258 10801 2911 7477 5965 10498 6769 8661 5991 1113 10945 8176
internal_count=101550 27114 74436 3881 23233 38798 35638 11557 27741 3206 16940 10444 11676 21747 11057 675 10496 13891 15258 10801 2911 7477 5965 10498 6769 8661 5991 1113 10945 8176
is_linear=0
shrinkage=0.1


Tree=6
num_leaves=31
num_cat=0
split_feature=4 4 4 4 4 6 9 6 4 4 9 9 6 6 6 4 6 9 6 4 8 9 6 6 6 6 6 6 6 6
split_gain=116150 39219.3 20733.9 8912.1 7674.54 5189.3 3320.05 3277 2431.94 2426.89 2271.94 2090.64 1574.04 1445.96 1422.82 1332.67 1281.01 1262 1172.11 1108.95 1074.48 796.624 785.322 701.474 695.705 678.35 708.87 639.431 632.239 626.667
threshold=4.4107142857142874 8.8035714285714306 2.0892857142857149 16.000000000000004 5.9107142857142874 1.5000000000000002 1.0000000180025095e-35 1.5000000000000002 1.017857142857143 3.160714285714286 1.0000000180025095e-35 1.0000000180025095e-35 2.5000000000000004 1.5000000000000002 5.5000000000000009 3.2678571428571432 5.5000000000000009 1.0000000180025095e-35 5.5000000000000009 11.053571428571431 48.3078994661306 1.0000000180025095e-35 5.5000000000000009 2.5000000000000004 1.5000000000000002 2.5000000000000004 5.5000000000000009 5.5000000000000009 1.5000000000000002 1.5000000000000002
decision_type=2 2 2 2 2 2 2 2 2 2 2 2 2 2 2 2 2 2 2 2 2 2 2 2 2 2 2 2 2 2
left_child=2 4 7 10 11 15 12 -1 -9 16 19 13 -6 -2 23 -4 21 22 -14 -3 -5 -7 -11 -10 -8 -13 -27 -15 -21 -22
right_child=1 3 5 20 6 9 24 8 14 17 -12 25 18 27 -16 -17 -18 -19 -20 28 29 -23 -24 -25 -26 26 -28 -29 -30 -31
leaf_value=-0.18609408216274076 0.0057550228005882271 0.30487511187106714 -0.11576346518343097 1.152306151127114 0.11321892442809994 -0.025837439735517411 0.21507910637763042 -0.15862522529299847 -0.11623006651152024 0.029661280745606845 0.63131957714310372 0.097356791391810457 0.21452063309791455 0.08870868209291681 -0.15277755851770825 -0.046236030385387809 -0.094644472928278836 0.11737207876008438 0.11443702847029043 0.31127250493842773 0.57283973335020855 0.065044702463277745 -0.031634532222916796 -0.058750732639476992 0.38355347007868051 0.27943959618311104 0.08481763792132202 0.025174106516622365 0.4688117095016735 0.79753512309274832
leaf_weight=8739 4065 1914 5715 68 4696 9537 348 7758 2832 10495 323 659 4728 8154 2798 5326 2627 1399 1555 352 174 1073 2610 8483 829 719 253 1966 922 433
leaf_count=8739 4065 1914 5715 68 4696 9537 348 7758 2832 10495 323 659 4728 8154 2798 5326 2627 1399 1555 352 174 1073 2610 8483 829 719 253 1966 922 433
internal_value=3.27922e-10 0.157101 -0.0728047 0.442576 0.11438 -0.0242421 0.174127 -0.134332 -0.11365 -0.00116496 0.378599 0.0684592 0.157016 0.0561309 -0.0889264 -0.0822246 -0.0321258 0.0270913 0.189751 0.352994 0.775354 -0.0166464 0.0174536 -0.0731371 0.333741 0.17568 0.228782 0.0763659 0.425284 0.733125
internal_weight=101550 32158 69392 4186 27972 38782 12156 30610 21871 27741 3511 15816 10979 14185 14113 11041 13237 14504 6283 3188 675 10610 13105 11315 1177 1631 972 10120 1274 607
internal_count=101550 32158 69392 4186 27972 38782 12156 30610 21871 27741 3511 15816 10979 14185 14113 11041 13237 14504 6283 3188 675 10610 13105 11315 1177 1631 972 10120 1274 607
is_linear=0
shrinkage=0.1


Tree=7
num_leaves=31
num_cat=0
split_feature=4 4 4 4 2 6 4 6 9 9 4 9 9 4 6 6 4 6 4 8 6 6 6 4 6 6 9 6 6 6
split_gain=94500.9 25906.6 23787.8 5699.6 4521.53 4189.75 4022.55 2766.17 2384.99 1872.21 1568.19 1519.99 1507.02 1443.1 1187.57 1108 1055.69 1050 875.414 870.327 817.894 757.847 744.971 684.77 633.717 573.654 548.55 538.072 622.996 532.658
threshold=5.2678571428571432 2.6964285714285716 9.9821428571428594 16.000000000000004 1.5000000000000002 2.5000000000000004 7.1607142857142874 4.5000000000000009 1.0000000180025095e-35 1.0000000180025095e-35 1.1607142857142858 1.0000000180025095e-35 1.0000000180025095e-35 3.7321428571428577 1.5000000000000002 1.5000000000000002 4.0892857142857144 2.5000000000000004 1.6964285714285716 48.3078994661306 2.5000000000000004 4.5000000000000009 1.5000000000000002 4.3392857142857144 5.5000000000000009 4.5000000000000009 1.0000000180025095e-35 2.5000000000000004 5.5000000000000009 5.5000000000000009
decision_type=2 2 2 2 2 2 2 2 2 2 2 2 2 2 2 2 2 2 2 2 2 2 2 2 2 2 2 2 2 2
left_child=1 4 6 12 10 13 11 9 20 23 -1 15 22 -3 -12 -2 -9 -6 -19 -5 -8 -20 -4 -7 -16 -22 -15 -13 -29 -17
right_child=2 5 3 19 17 7 8 16 -10 -11 14 27 -14 26 24 29 -18 18 21 -21 25 -23 -24 -25 -26 -27 -28 28 -30 -31
leaf_value=-0.16170259524345287 0.045987748405605093 -0.063144481109899592 0.25413239794398074 1.0370755297077054 -0.10747142699195761 0.041687393672153954 0.14302340484144183 -0.024158358298245631 0.39033663374895061 0.196635680446026 -0.14302033607898065 0.13940499013649141 0.62708611609547904 -0.011400962385662253 -0.060134280774035764 0.13020772465578265 0.038515333092475845 -0.082219044109875961 -0.0031541702168274982 0.65981242145600394 0.26173523827136286 -0.067492234714428778 0.3819619941393087 0.098430380655237959 -0.12301062433908323 0.17779759322073052 0.069948591814581337 0.3324911497096823 0.10862587395023152 0.063864436493667742
leaf_weight=10720 3072 7105 631 68 4652 6958 2454 6447 639 1097 5914 508 209 8541 4563 6128 4609 5573 4397 607 1617 3137 1643 3063 2471 1640 918 495 166 1508
leaf_count=10720 3072 7105 631 68 4652 6958 2454 6447 639 1097 5914 508 209 8541 4563 6128 4609 5573 4397 607 1617 3137 1643 3063 2471 1640 918 495 166 1508
internal_value=-6.49251e-10 -0.0498242 0.186774 0.440155 -0.104796 0.00896346 0.142873 0.0373875 0.207121 0.0726086 -0.133413 0.108523 0.37011 -0.0290874 -0.109992 0.0967029 0.00196891 -0.0666567 -0.0521705 0.697818 0.186621 -0.0299432 0.346491 0.0590313 -0.0822223 0.21947 -0.00350595 0.216794 0.276271 0.117106
internal_weight=101550 80165 21385 3158 41427 38738 18227 22174 6350 11118 23668 11877 2483 16564 12948 10708 11056 17759 13107 675 5711 7534 2274 10021 7034 3257 9459 1169 661 7636
internal_count=101550 80165 21385 3158 41427 38738 18227 22174 6350 11118 23668 11877 2483 16564 12948 10708 11056 17759 13107 675 5711 7534 2274 10021 7034 3257 9459 1169 661 7636
is_linear=0
shrinkage=0.1


Tree=8
num_leaves=31
num_cat=0
split_feature=4 4 4 4 4 6 4 6 6 9 6 9 6 9 6 6 9 9 4 4 8 4 6 8 6 6 6 4 6 9
split_gain=76947.1 23952.7 17148.1 5292.2 4008.93 2987.21 2953.77 2572.96 2154.56 2273.71 1671.47 1643.02 1365.93 1307.26 1207.84 1137.78 1074.11 842.466 777.672 767.185 704.965 621.7 609.491 544.44 521.879 506.82 506.675 487.28 479.141 461.998
threshold=5.6250000000000009 3.1250000000000004 10.339285714285717 1.6964285714285716 16.000000000000004 2.5000000000000004 7.9464285714285721 1.5000000000000002 5.5000000000000009 1.0000000180025095e-35 2.5000000000000004 1.0000000180025095e-35 5.5000000000000009 1.0000000180025095e-35 5.5000000000000009 1.5000000000000002 1.0000000180025095e-35 1.0000000180025095e-35 4.4821428571428585 0.8392857142857143 48.3078994661306 4.4107142857142874 5.5000000000000009 31.196419619271911 2.5000000000000004 2.5000000000000004 1.0000000180025095e-35 6.9464285714285721 1.5000000000000002 1.0000000180025095e-35
decision_type=2 2 2 2 2 2 2 2 2 2 2 2 2 2 2 2 2 2 2 2 2 2 2 2 2 2 2 2 2 2
left_child=1 3 6 10 16 18 11 -5 9 21 -1 15 19 -8 17 -2 26 25 29 -12 -6 -7 27 -18 -22 -9 -4 -17 -13 -3
right_child=2 5 4 7 20 8 13 14 -10 -11 12 28 -14 -15 -16 22 23 -19 -20 -21 24 -23 -24 -25 -26 -27 -28 -29 -30 -31
leaf_value=-0.15111128760699299 0.059370484034448091 -0.035986272645284222 0.19725036250532799 -0.10510214018420128 0.93336800652391771 0.036261368564779579 0.20704130054487169 -0.063617204284993498 -0.0093045496756029907 0.18261281016542422 -0.11712291521860801 0.13319725666933499 -0.15268590036797794 0.41256982472495757 -0.086369228569204468 0.12277167898418387 0.73753541404008871 0.051362283878441252 0.01868001257390587 -0.058974108723737588 0.4863505679668147 0.080336973077483748 0.074242194076699602 0.37542272814562627 0.67382395890937463 -0.017827534732004269 0.34639316207089643 0.17988374728859222 0.27492202944138866 0.038763719417284931
leaf_weight=10070 3141 8494 265 7115 68 8057 3005 3218 4929 1526 3448 333 3335 345 3537 3990 100 1442 5479 6635 259 5309 1550 71 348 9714 1622 2388 841 916
leaf_count=10070 3141 8494 265 7115 68 8057 3005 3218 4929 1526 3448 333 3335 345 3537 3990 100 1442 5479 6635 259 5309 1550 71 348 9714 1622 2388 841 916
internal_value=-3.59243e-11 -0.0408475 0.185501 -0.0862257 0.416558 0.0225773 0.145003 -0.0542285 0.0480032 0.0669711 -0.120318 0.122237 -0.0972083 0.228208 -0.0340193 0.110306 0.347196 -0.0211376 -0.0112709 -0.0788588 0.628036 0.0537683 0.130486 0.587185 0.593831 -0.0292218 0.325448 0.144155 0.234722 -0.0287099
internal_weight=101550 83224 18326 48514 2733 34710 15593 25026 19821 14892 23488 12243 13418 3350 17911 11069 2058 14374 14889 10083 675 13366 7928 171 607 12932 1887 6378 1174 9410
internal_count=101550 83224 18326 48514 2733 34710 15593 25026 19821 14892 23488 12243 13418 3350 17911 11069 2058 14374 14889 10083 675 13366 7928 171 607 12932 1887 6378 1174 9410
is_linear=0
shrinkage=0.1


Tree=9
num_leaves=31
num_cat=0
split_feature=4 4 4 4 6 9 1 4 4 9 9 9 6 4 8 6 6 6 1 4 6 6 6 1 6 9 9 4 6 9
split_gain=62561.7 18837 13871.2 6032.79 3163.43 2178.23 2113.62 1794.56 1780.25 1297.23 1161.25 1000.85 984.61 869.331 826.698 816.337 760.676 757.005 739.87 617.735 605.102 541.767 528.229 515.861 515.703 541.048 499.873 453.395 448.608 438.538
threshold=4.7678571428571432 8.2321428571428594 2.1964285714285716 12.267857142857144 1.5000000000000002 1.0000000180025095e-35 1.0000000180025095e-35 5.8392857142857144 3.3392857142857149 1.0000000180025095e-35 1.0000000180025095e-35 1.0000000180025095e-35 2.5000000000000004 3.410714285714286 48.3078994661306 1.5000000000000002 4.5000000000000009 5.5000000000000009 6.5000000000000009 1.0892857142857146 5.5000000000000009 2.5000000000000004 5.5000000000000009 8.5000000000000018 2.5000000000000004 1.0000000180025095e-35 1.0000000180025095e-35 0.91071428571428592 1.5000000000000002 1.0000000180025095e-35
decision_type=2 2 2 2 2 2 2 2 2 2 2 2 2 2 2 2 2 2 2 2 2 2 2 2 2 2 2 2 2 2
left_child=2 5 6 10 13 7 27 21 17 14 23 20 -9 -4 -5 -8 -14 24 -7 -17 -10 -2 26 -3 -6 -26 -21 -1 -16 -15
right_child=1 3 4 9 8 18 15 12 11 -11 -12 -13 16 29 28 19 -18 -19 -20 22 -22 -23 -24 -25 25 -27 -28 -29 -30 -31
leaf_value=-0.15031912026537231 0.018506417679746045 0.17619194844316891 -0.080451266657358578 0.36759296278122766 -0.044041468401320283 0.13428006875365855 -0.12374977545029145 0.071238976718417751 0.032324241183286459 0.80707687334767708 0.40602862948912444 0.10565885451703572 0.16907963836718598 -0.035595580466242081 0.40093946326738117 -0.097409491263961034 0.097574660534445815 -0.065210855535796516 0.25276827348546793 -0.053765393921209409 -0.018793293756390939 0.06741966580281071 -0.10712352017555488 0.25256574149181898 -0.0029071777665373635 0.08142486512319716 0.021652382913087746 -0.1120354007669546 0.59092595803326575 0.052930778411798551
leaf_weight=5452 3997 1483 5869 551 2789 1254 3051 4452 11654 116 377 1593 2983 5497 174 4885 2968 2766 909 9170 2890 5224 1677 2191 7551 846 972 7151 435 623
leaf_count=5452 3997 1483 5869 551 2789 1254 3051 4452 11654 116 377 1593 2983 5497 174 4885 2968 2766 909 9170 2890 5224 1677 2191 7551 846 972 7151 435 623
internal_value=-9.4749e-11 0.13005 -0.0473718 0.298614 -0.00951624 0.0888349 -0.0965987 0.0783374 0.00779146 0.48823 0.238888 0.0304089 0.106808 -0.0529537 0.456345 -0.076185 0.133417 -0.0183681 0.184075 -0.0674972 0.0221668 0.0462174 -0.055134 0.221738 -0.00678512 0.0055893 -0.0465374 -0.128597 0.536644 -0.0265838
internal_weight=101550 27114 74436 5327 42078 21787 32358 19624 30089 1276 4051 16137 10403 11989 1160 19755 5951 13952 2163 16704 14544 9221 11819 3674 11186 8397 10142 12603 609 6120
internal_count=101550 27114 74436 5327 42078 21787 32358 19624 30089 1276 4051 16137 10403 11989 1160 19755 5951 13952 2163 16704 14544 9221 11819 3674 11186 8397 10142 12603 609 6120
is_linear=0
shrinkage=0.1


Tree=10
num_leaves=31
num_cat=0
split_feature=4 4 4 4 6 4 6 6 9 4 9 9 9 9 4 6 6 6 6 6 4 6 6 1 6 9 6 9 6 6
split_gain=50829.3 16917.7 9656.6 4906.43 2518.55 2434.94 1649.54 1283.3 1227.67 1086.74 1066.11 1050.41 1003.08 910.507 842.831 770.722 769.434 650.404 587.795 657.32 578.734 565.811 500.679 477.051 472.073 409.827 366.409 356.716 329.413 328.116
threshold=4.4821428571428585 8.2321428571428594 2.0535714285714293 12.696428571428573 1.5000000000000002 6.0178571428571432 1.5000000000000002 5.5000000000000009 1.0000000180025095e-35 0.87500000000000011 1.0000000180025095e-35 1.0000000180025095e-35 1.0000000180025095e-35 1.0000000180025095e-35 3.3392857142857149 5.5000000000000009 1.5000000000000002 2.5000000000000004 2.5000000000000004 5.5000000000000009 3.2321428571428577 4.5000000000000009 5.5000000000000009 8.5000000000000018 2.5000000000000004 1.0000000180025095e-35 2.5000000000000004 1.0000000180025095e-35 2.5000000000000004 2.5000000000000004
decision_type=2 2 2 2 2 2 2 2 2 2 2 2 2 2 2 2 2 2 2 2 2 2 2 2 2 2 2 2 2 2
left_child=2 5 6 11 20 12 -1 10 16 -8 14 23 17 18 28 25 -7 -2 -5 -20 -4 -19 -18 -3 -12 29 -14 -22 -6 -11
right_child=1 3 4 13 7 8 9 -9 -10 15 24 -13 26 -15 -16 -17 22 21 19 -21 27 -23 -24 -25 -26 -27 -28 -29 -30 -31
leaf_value=-0.12712327180250424 0.014321313709549151 0.15823114114417569 -0.077154037371154005 0.33685813810998483 -0.04406342567928416 0.053903398735552048 -0.11092565741706906 -0.041779271688664514 0.21597435053452882 -0.085701440495332556 -0.0041753374932436754 0.37470352782994742 0.064785255095667196 0.73331411182880402 0.025738565483466015 -0.10591666250735195 0.13111894084046846 0.084764305574787882 0.54740820182446348 0.30410988922832777 -0.0406291070428395 0.031109828905536714 0.062438415788254653 0.23086503790830012 0.10127669151644236 0.0051843982567766414 0.16273193228812444 0.041963161733290011 -0.004665509161569323 -0.045946859342013341
leaf_weight=8551 5977 1496 5732 451 2833 2668 6089 5722 998 2768 561 389 641 104 9613 3059 5336 3953 454 147 5232 3909 1325 2286 1745 1220 945 581 8459 8306
leaf_count=8551 5977 1496 5732 451 2833 2668 6089 5722 998 2768 561 389 641 104 9613 3059 5336 3953 454 147 5232 3909 1325 2286 1745 1220 945 581 8459 8306
internal_value=-1.31988e-10 0.106534 -0.0469835 0.268753 -0.015119 0.0729779 -0.0899873 0.000637752 0.110559 -0.0751775 0.0110944 0.218228 0.0478178 0.451051 0.00397645 -0.0609998 0.0992814 0.0391849 0.423147 0.487899 -0.054607 0.0580872 0.117457 0.202134 0.0756225 -0.0498236 0.123146 -0.0323741 -0.0145499 -0.0558837
internal_weight=101550 31079 70471 5327 40478 25752 29993 28933 10327 21442 23211 4171 15425 1156 20905 15353 9329 13839 1052 601 11545 7862 6661 3782 2306 12294 1586 5813 11292 11074
internal_count=101550 31079 70471 5327 40478 25752 29993 28933 10327 21442 23211 4171 15425 1156 20905 15353 9329 13839 1052 601 11545 7862 6661 3782 2306 12294 1586 5813 11292 11074
is_linear=0
shrinkage=0.1


Tree=11
num_leaves=31
num_cat=0
split_feature=4 4 4 4 4 6 6 6 6 9 9 9 9 9 6 6 4 8 6 4 4 6 4 6 6 6 6 6 1 6
split_gain=41297.8 14915.3 6763.37 4001.78 2485.84 2057.34 1152.24 1151.79 1127.7 1022.06 1018.31 865.476 816.372 754.469 700.097 693.919 640.691 634.022 549.269 437.592 375.17 341.498 335.887 419.041 320.841 313.421 307.432 329.978 284.924 278.648
threshold=4.2321428571428585 8.2321428571428594 1.8392857142857146 12.267857142857144 5.8392857142857144 1.5000000000000002 2.5000000000000004 5.5000000000000009 4.5000000000000009 1.0000000180025095e-35 1.0000000180025095e-35 1.0000000180025095e-35 1.0000000180025095e-35 1.0000000180025095e-35 2.5000000000000004 1.5000000000000002 3.1250000000000004 48.3078994661306 4.5000000000000009 3.0178571428571432 0.5892857142857143 1.5000000000000002 9.5892857142857171 1.0000000180025095e-35 5.5000000000000009 1.5000000000000002 2.5000000000000004 5.5000000000000009 11.500000000000002 5.5000000000000009
decision_type=2 2 2 2 2 2 2 2 2 2 2 2 2 2 2 2 2 2 2 2 2 2 2 2 2 2 2 2 2 2
left_child=2 4 6 13 10 19 -1 12 20 14 15 17 16 22 -6 -2 -7 -5 -16 -4 -8 -11 -3 -24 -23 -19 -12 -28 -13 -17
right_child=1 3 5 11 9 7 8 -9 -10 21 26 28 -14 -15 18 29 -18 25 -20 -21 -22 24 23 -25 -26 -27 27 -29 -30 -31
leaf_value=-0.11005986899445824 -0.0033465516955480303 0.14664842679953347 -0.075580807972612615 0.29254311966403862 0.056819007142766692 -0.01836994780972066 -0.089155984725031209 -0.046617590957425216 -0.09523071345325039 0.10169998929588074 0.05799176536006332 0.34160085904573945 0.060402794186891887 0.32795541270460626 0.13955394033114063 0.049909947255068511 0.016930540067710793 0.3271597099715266 0.078792378217720227 -0.036511845648338981 -0.030141287841708015 0.25730109773819348 0.094874893633392965 0.22609956572070608 0.10344051935378162 0.48596084305952342 0.17142361637390929 0.046257221869282508 0.73468703922655398 0.011135201836395759
leaf_weight=11236 4680 1690 5837 551 4452 11512 1303 5687 7466 327 769 23 2282 377 2983 9359 9291 174 2968 5634 6217 613 284 1700 174 435 841 281 93 2311
leaf_count=11236 4680 1690 5837 551 4452 11512 1303 5687 7466 327 769 23 2282 377 2983 9359 9291 174 2968 5634 6217 613 284 1700 174 435 841 281 93 2311
internal_value=1.04794e-10 0.0877727 -0.0463327 0.241878 0.0601863 -0.020583 -0.085851 -0.00630642 -0.0676999 0.0965602 0.0372205 0.396311 0.00362426 0.193233 0.0868118 0.0291852 -0.0026041 0.370267 0.10925 -0.056392 -0.0403668 0.187594 0.179409 0.207315 0.223284 0.440589 0.106696 0.140076 0.656748 0.0422314
internal_weight=101550 35085 66465 5327 29758 40243 26222 28772 14986 11517 18241 1276 23085 4051 10403 16350 20803 1160 5951 11471 7520 1114 3674 1984 787 609 1891 1122 116 11670
internal_count=101550 35085 66465 5327 29758 40243 26222 28772 14986 11517 18241 1276 23085 4051 10403 16350 20803 1160 5951 11471 7520 1114 3674 1984 787 609 1891 1122 116 11670
is_linear=0
shrinkage=0.1


Tree=12
num_leaves=31
num_cat=0
split_feature=4 3 4 4 0 4 1 1 9 9 6 6 9 4 9 6 1 9 6 9 2 6 6 4 6 8 1 8 0 6
split_gain=33632.5 9188.01 8672.78 2033.98 2019.42 1837.69 1389.5 1042.46 910.492 676.376 659.54 652.04 588.274 531.133 526.463 511.885 495.961 444.341 401.492 385.637 377.057 370.58 339.558 325.146 312.643 298.677 280.317 274.273 264.301 253.073
threshold=5.0892857142857144 10.214285714285717 2.3392857142857149 7.1607142857142874 4.5000000000000009 16.000000000000004 1.5000000000000002 2.5000000000000004 1.0000000180025095e-35 1.0000000180025095e-35 2.5000000000000004 4.5000000000000009 1.0000000180025095e-35 1.2321428571428574 1.0000000180025095e-35 2.5000000000000004 4.5000000000000009 1.0000000180025095e-35 1.5000000000000002 1.0000000180025095e-35 3.5000000000000004 5.5000000000000009 1.5000000000000002 9.3392857142857171 1.5000000000000002 48.3078994661306 11.500000000000002 21.888556272969343 3.5000000000000004 1.5000000000000002
decision_type=2 2 2 2 2 2 2 2 2 2 2 2 2 2 2 2 2 2 2 2 2 2 2 2 2 2 2 2 2 2
left_child=2 3 6 10 7 14 13 20 15 -9 -2 17 16 29 24 -5 -6 -12 -10 28 -4 23 -15 -17 -3 -7 -26 -16 -8 -1
right_child=1 5 4 8 12 25 19 9 18 -11 11 -13 -14 22 27 21 -18 -19 -20 -21 -22 -23 -24 -25 26 -27 -28 -29 -30 -31
leaf_value=-0.11966211502642331 0.034768153141130131 0.14964253218011764 -0.053805462899280537 0.08135411257573795 0.0046555336319577881 0.61541371630395159 -0.056372928660352886 -0.0081857051374217907 0.11394270825096303 0.057502211545539951 0.09608045223525391 0.049854046173934401 0.090289398837209767 -0.088249020987513305 0.50143952866141894 0.14504595446591953 0.043815462007505954 0.20646386366392591 0.29005132009984352 0.007349968355791419 -0.014615573512065855 0.082532659455311963 -0.050820456791800084 0.24808203390471531 0.19371057646847312 0.39440766513421277 0.2819276792902416 0.270897445506459 -0.019551939466600596 -0.088342068093900841
leaf_weight=3987 5942 567 7420 2558 7152 68 10165 15898 180 1739 3583 3911 1413 4390 98 2231 5904 406 461 1328 3669 834 5412 355 729 607 712 109 2412 7310
leaf_count=3987 5942 567 7420 2558 7152 68 10165 15898 180 1739 3583 3911 1413 4390 98 2231 5904 406 461 1328 3669 834 5412 355 729 607 712 109 2412 7310
internal_value=-1.33786e-10 0.105314 -0.0314479 0.0817398 -0.00146867 0.272221 -0.0684424 -0.0168141 0.127334 -0.00170891 0.0599373 0.0788683 0.0289973 -0.0846167 0.2282 0.115189 0.0223639 0.107315 0.240598 -0.0439 -0.0408388 0.140497 -0.0675835 0.159191 0.212547 0.416672 0.237299 0.380043 -0.0493114 -0.0993957
internal_weight=101550 23351 78199 20461 43195 2890 35004 28726 6619 17637 13842 7900 14469 21099 2215 5978 13056 3989 641 13905 11089 3420 9802 2586 2008 675 1441 207 12577 11297
internal_count=101550 23351 78199 20461 43195 2890 35004 28726 6619 17637 13842 7900 14469 21099 2215 5978 13056 3989 641 13905 11089 3420 9802 2586 2008 675 1441 207 12577 11297
is_linear=0
shrinkage=0.1


Tree=13
num_leaves=31
num_cat=0
split_feature=4 4 0 4 1 0 1 9 2 9 2 9 9 1 6 4 0 9 6 6 1 6 9 4 4 6 1 9 1 2
split_gain=27476.4 9480.01 5024.26 2756.32 1629.09 1555.5 1050.48 898.951 617.821 603.407 577.073 575.532 502.954 451.594 439.059 413.209 379.254 348.109 341.33 337.942 289.681 258.72 245.385 241.209 240.344 232.546 223.671 223.416 221.098 206.982
threshold=4.3392857142857144 8.1607142857142865 2.5000000000000004 12.267857142857144 2.5000000000000004 6.5000000000000009 4.5000000000000009 1.0000000180025095e-35 1.0000000180025095e-35 1.0000000180025095e-35 6.5000000000000009 1.0000000180025095e-35 1.0000000180025095e-35 12.500000000000002 2.5000000000000004 5.9821428571428585 4.5000000000000009 1.0000000180025095e-35 1.5000000000000002 4.5000000000000009 8.5000000000000018 1.5000000000000002 1.0000000180025095e-35 6.7321428571428585 0.87500000000000011 1.5000000000000002 8.5000000000000018 1.0000000180025095e-35 11.500000000000002 2.5000000000000004
decision_type=2 2 2 2 2 2 2 2 2 2 2 2 2 2 2 2 2 2 2 2 2 2 2 2 2 2 2 2 2 2
left_child=2 5 4 12 8 10 9 15 24 16 18 13 20 -5 -15 -7 -4 26 -2 -16 -3 -17 -6 -9 -1 -14 -12 -8 -13 -10
right_child=1 3 6 11 22 7 27 23 29 -11 17 28 25 14 19 21 -18 -19 -20 -21 -22 -23 -24 -25 -26 -27 -28 -29 -30 -31
leaf_value=-0.10535123332122039 -0.00051809334249312475 0.11142896286460831 -0.031679931958865211 0.20202690121243522 -0.031244739914456528 0.04875494946453085 0.020756099701771433 0.13582313255053655 -0.06703291822669781 0.035136280736560388 0.04114515607596466 0.25782619611076685 0.14793911535989465 0.24793735708616957 0.47110764772858299 0.046609297048053125 -0.0015929501863642765 0.13249224278170099 0.033943578152443324 0.30886725127062897 0.16724378145673863 0.10301455140010088 0.020226552997443192 0.23842799428498163 -0.077175816595643501 0.31326214346386821 0.097412173328146001 0.076948630519486194 0.60409723174187446 -0.042794049336885381
leaf_weight=5160 4730 1577 12938 326 9612 4182 7089 667 10858 2051 4113 23 123 316 283 1024 6196 583 7325 235 2266 3950 1025 349 7326 276 853 786 93 5215
leaf_count=5160 4730 1577 12938 326 9612 4182 7089 667 10858 2051 4113 23 123 316 283 1024 6196 583 7325 235 2266 3950 1025 349 7326 276 853 786 93 5215
internal_value=-1.8409e-10 0.0744779 -0.0363289 0.194198 -0.05969 0.0506943 -0.00481964 0.081826 -0.072132 -0.0164116 0.0327057 0.323062 0.155435 0.301824 0.340834 0.0719232 -0.0219371 0.0593919 0.0204219 0.397504 0.14434 0.0914024 -0.0262849 0.171068 -0.0888197 0.262298 0.05081 0.0263646 0.53544 -0.0591684
internal_weight=101550 33294 68256 5518 39196 27776 29060 10172 28559 21185 17604 1276 4242 1160 834 9156 19134 5549 12055 518 3843 4974 10637 1016 12486 399 4966 7875 116 16073
internal_count=101550 33294 68256 5518 39196 27776 29060 10172 28559 21185 17604 1276 4242 1160 834 9156 19134 5549 12055 518 3843 4974 10637 1016 12486 399 4966 7875 116 16073
is_linear=0
shrinkage=0.1


Tree=14
num_leaves=31
num_cat=0
split_feature=4 4 4 0 6 4 6 4 4 9 9 6 6 6 9 1 9 9 6 6 6 0 6 6 9 6 6 1 8 8
split_gain=22398.8 7224.43 5102.86 1758.68 1290.14 1170.63 1080.09 960.166 749.565 588.412 565.519 434.79 533.152 414.613 392.827 385.98 383.66 337.999 306.563 289.43 283.947 282.412 280.307 417.444 273.903 254.355 297.17 252.973 232.175 296.787
threshold=5.6250000000000009 3.1250000000000004 10.339285714285717 2.5000000000000004 2.5000000000000004 16.000000000000004 4.5000000000000009 7.4821428571428585 1.3750000000000002 1.0000000180025095e-35 1.0000000180025095e-35 2.5000000000000004 4.5000000000000009 1.5000000000000002 1.0000000180025095e-35 12.500000000000002 1.0000000180025095e-35 1.0000000180025095e-35 5.5000000000000009 1.5000000000000002 5.5000000000000009 8.5000000000000018 2.5000000000000004 4.5000000000000009 1.0000000180025095e-35 1.5000000000000002 5.5000000000000009 2.5000000000000004 22.847913300666342 28.609272926311199
decision_type=2 2 2 2 2 2 2 2 2 2 2 2 2 2 2 2 2 2 2 2 2 2 2 2 2 2 2 2 2 2
left_child=1 3 7 8 24 15 10 11 19 -9 28 -2 14 -10 -13 -4 22 -17 -15 -1 -21 -11 -5 -24 27 -7 -27 -3 -6 -30
right_child=2 4 5 16 6 25 -8 9 13 21 -12 12 -14 18 -16 17 -18 -19 -20 20 -22 -23 23 -25 -26 26 -28 -29 29 -31
leaf_value=-0.096517669298236561 0.036906468337600348 -0.032870461929050715 0.1544967272361466 -0.049105535916441297 0.070697678115543991 0.24339456135127213 0.0060830164824364251 0.10203093626657241 -0.064531389705412681 0.14911682121262981 0.12397100053772198 0.096353172642399676 0.048291513644295896 -0.022867378122598234 0.22075530554034881 0.22266873547953017 0.028783080439395398 0.44854892122827161 -0.05983306835274832 -0.057897966281824781 -0.097384247167631222 0.29804425772427201 -0.0007955677830296413 -0.042776721230844389 0.031920482948274195 0.41840587748405211 0.2217998105722169 -0.0039796769218427164 -0.006182144564292784 0.046004687363751483
leaf_weight=4794 4455 4615 1269 3369 2493 193 9878 4635 7282 290 1003 2716 2990 7670 280 716 1527 73 3171 8057 2353 227 6595 3696 1445 386 96 8829 1389 5058
leaf_count=4794 4455 4615 1269 3369 2493 193 9878 4635 7282 290 1003 2716 2990 7670 280 716 1527 73 3171 8057 2353 227 6595 3696 1445 386 96 8829 1389 5058
internal_value=1.04675e-10 -0.0220385 0.100084 -0.0469598 0.0127939 0.226127 0.0295033 0.077992 -0.0598126 0.113318 0.0527705 0.0605609 0.0781654 -0.0460763 0.10798 0.188645 -0.0187551 0.243568 -0.0336799 -0.0761862 -0.0668232 0.214507 -0.0240693 -0.015873 -0.00945051 0.340404 0.379248 -0.0138972 0.0447823 0.0347611
internal_weight=101550 83224 18326 48514 34710 2733 19821 15593 33327 5152 9943 10441 5986 18123 2996 2058 15187 789 10841 15204 10410 517 13660 10291 14889 675 482 13444 8940 6447
internal_count=101550 83224 18326 48514 34710 2733 19821 15593 33327 5152 9943 10441 5986 18123 2996 2058 15187 789 10841 15204 10410 517 13660 10291 14889 675 482 13444 8940 6447
is_linear=0
shrinkage=0.1


Tree=15
num_leaves=31
num_cat=0
split_feature=4 4 1 4 0 4 9 1 1 6 9 9 9 6 4 6 6 6 1 4 6 6 6 0 0 6 6 9 6 6
split_gain=18451.6 6687.88 2981.59 1792.87 1345.46 952.609 660.075 588.058 530.745 421.404 406.852 374.474 368.361 340.457 297.815 289.282 287.768 330.625 258.784 256.71 245.386 226.802 332.936 226.283 204.618 201.373 199.878 195.268 192.438 185.135
threshold=4.1250000000000009 8.2321428571428594 2.5000000000000004 13.053571428571431 6.5000000000000009 1.8392857142857146 1.0000000180025095e-35 5.5000000000000009 4.5000000000000009 1.5000000000000002 1.0000000180025095e-35 1.0000000180025095e-35 1.0000000180025095e-35 1.5000000000000002 6.9464285714285721 5.5000000000000009 2.5000000000000004 4.5000000000000009 8.5000000000000018 0.66071428571428592 1.5000000000000002 2.5000000000000004 4.5000000000000009 3.5000000000000004 5.5000000000000009 2.5000000000000004 5.5000000000000009 1.0000000180025095e-35 3.5000000000000004 2.5000000000000004
decision_type=2 2 2 2 2 2 2 2 2 2 2 2 2 2 2 2 2 2 2 2 2 2 2 2 2 2 2 2 2 2
left_child=2 4 5 11 7 13 14 20 23 -7 -9 18 16 -1 -6 19 -5 28 -3 -15 -2 -10 27 -4 -11 -8 -22 -23 -18 -16
right_child=1 3 8 12 6 9 25 10 21 24 -12 -13 -14 15 29 -17 17 -19 -20 -21 26 22 -24 -25 -26 -27 -28 -29 -30 -31
leaf_value=-0.081509487377099302 -0.0077912595293009902 0.089790881187117144 -0.02536100493536177 0.19422120444965785 0.047873248726863465 -0.05028855914984303 0.076734834791503809 0.036233072886707345 -0.014255361040764018 -0.023231853097370372 0.10686489499194528 0.22416864280127968 0.46370661665791091 -0.071994884178354507 0.052257614276347654 -0.080150592501851581 0.29924586218038052 0.2260351349001205 0.14265450901409735 -0.037786626588599131 0.032141659280978577 0.031479122101874472 -0.0077186000499781613 -0.0014013211552505048 0.024107993684992834 0.16970063556657969 -0.0048796421166384428 0.10157172095258625 0.46564582478013827 0.10504548284147096
leaf_weight=7223 4878 1515 10865 396 6964 7142 337 7855 2264 8426 910 396 97 3011 1037 3471 139 263 2382 8082 5011 4025 2410 6186 1024 755 2057 441 139 1849
leaf_count=7223 4878 1515 10865 396 6964 7142 337 7855 2264 8426 910 396 97 3011 1037 3471 139 263 2382 8082 5011 4025 2410 6186 1024 755 2057 441 139 1849
internal_value=3.83312e-11 0.056326 -0.0322586 0.15999 0.03888 -0.0500102 0.0672449 0.0238944 -0.00624624 -0.0319567 0.0435662 0.131518 0.2782 -0.0637588 0.059067 -0.0549554 0.258995 0.306409 0.122103 -0.0470719 0.0094608 0.013197 0.022236 -0.0166686 -0.0181021 0.141011 0.0213674 0.0384005 0.382446 0.0860777
internal_weight=101550 36980 64570 5327 31653 38379 10942 20711 26191 16592 8765 4293 1034 21787 9850 14564 937 541 3897 11093 11946 9140 6876 17051 9450 1092 7068 4466 278 2886
internal_count=101550 36980 64570 5327 31653 38379 10942 20711 26191 16592 8765 4293 1034 21787 9850 14564 937 541 3897 11093 11946 9140 6876 17051 9450 1092 7068 4466 278 2886
is_linear=0
shrinkage=0.1


Tree=16
num_leaves=31
num_cat=0
split_feature=4 3 1 4 4 4 2 6 9 6 6 6 9 9 4 6 6 9 6 6 6 9 4 6 6 9 6 6 6 8
split_gain=14995.1 4512.32 3473.72 1101.33 981.618 824.12 798.271 509.945 416.904 413.029 387.559 386.153 374.413 373.81 353.786 302.212 374.826 256.118 243.027 218.595 216.815 208.289 207.683 205.722 197.085 192.685 184.653 179.663 224.549 174.75
threshold=4.7678571428571432 10.214285714285717 2.5000000000000004 6.9464285714285721 1.8392857142857146 16.000000000000004 4.5000000000000009 2.5000000000000004 1.0000000180025095e-35 5.5000000000000009 1.5000000000000002 1.5000000000000002 1.0000000180025095e-35 1.0000000180025095e-35 3.1250000000000004 2.5000000000000004 4.5000000000000009 1.0000000180025095e-35 5.5000000000000009 5.5000000000000009 1.0000000180025095e-35 1.0000000180025095e-35 9.3392857142857171 5.5000000000000009 5.5000000000000009 1.0000000180025095e-35 2.5000000000000004 1.5000000000000002 5.5000000000000009 21.888556272969343
decision_type=2 2 2 2 2 2 2 2 2 2 2 2 2 2 2 2 2 2 2 2 2 2 2 2 2 2 2 2 2 2
left_child=2 3 4 10 15 17 14 -5 -8 12 -2 -6 22 19 25 -1 -17 20 21 -12 -3 -13 -9 -15 26 -4 -22 -7 -29 -19
right_child=1 5 6 7 11 27 8 9 -10 -11 13 18 -14 23 -16 16 -18 29 -20 -21 24 -23 -24 -25 -26 -27 -28 28 -30 -31
leaf_value=-0.069586109322618259 0.010580656893020585 0.06107696937170759 -0.024721791972048681 0.050981571525879871 -0.042563957960185798 0.19698001791776154 0.0173964944392201 0.099657206562757394 0.086151075898574347 0.049421557770072462 0.045804967802217052 -0.0090637694743168282 0.22227939010747236 0.11976495355657756 0.0036835933800302596 -0.025121539939069772 -0.061919393985679264 0.35510585961901414 -0.035899846668142645 0.0096981664984444656 0.126378927175406 0.046717379560841411 0.18105593398318326 0.015862250754131915 0.079187050367014344 0.016876959477982144 0.19953216016161709 0.34519606706700801 0.17429299680904176 0.17108476187162308
leaf_weight=10507 4685 288 11665 3335 8136 193 9063 2678 977 1097 8496 6520 324 925 10963 4875 6405 98 3348 2089 579 746 355 240 287 1231 854 386 96 109
leaf_count=10507 4685 288 11665 3335 8136 193 9063 2678 977 1097 8496 6520 324 925 10963 4875 6405 98 3348 2089 579 746 355 240 287 1231 854 386 96 109
internal_value=-1.36599e-10 0.0636692 -0.0231921 0.0495786 -0.0429469 0.181777 0.000431078 0.0805513 0.0240871 0.102692 0.0348998 -0.0261727 0.1201 0.0445964 -0.00952349 -0.057383 -0.0460161 0.152298 -0.0136082 0.0386791 0.14138 -0.00333672 0.109185 0.0983601 0.154826 -0.0207509 0.169975 0.278511 0.311157 0.258206
internal_weight=101550 27114 74436 24224 40537 2890 33899 7789 10040 4454 16435 18750 3357 11750 23859 21787 11280 2215 10614 10585 2008 7266 3033 1165 1720 12896 1433 675 482 207
internal_count=101550 27114 74436 24224 40537 2890 33899 7789 10040 4454 16435 18750 3357 11750 23859 21787 11280 2215 10614 10585 2008 7266 3033 1165 1720 12896 1433 675 482 207
is_linear=0
shrinkage=0.1


Tree=17
num_leaves=31
num_cat=0
split_feature=4 4 4 6 6 4 6 6 9 9 1 0 6 4 4 4 6 9 4 1 6 4 6 8 9 1 9 2 6 4
split_gain=12268.4 3976.58 2804.25 1041.84 983.991 840.962 722.384 926.68 418.067 397.454 374.392 309.237 300.026 293.662 287.188 281.1 273.289 263.483 261.887 253.52 226.128 198.783 191.549 187.818 180.661 169.826 256.516 165.899 145.151 140.002
threshold=5.6250000000000009 2.6250000000000004 11.946428571428573 2.5000000000000004 4.5000000000000009 7.4821428571428585 2.5000000000000004 4.5000000000000009 1.0000000180025095e-35 1.0000000180025095e-35 12.500000000000002 9.5000000000000018 2.5000000000000004 3.7321428571428577 3.6250000000000004 0.80357142857142871 4.5000000000000009 1.0000000180025095e-35 1.1964285714285716 10.500000000000002 1.5000000000000002 1.1250000000000002 3.5000000000000004 15.057327623235226 1.0000000180025095e-35 5.5000000000000009 1.0000000180025095e-35 7.5000000000000009 1.0000000180025095e-35 9.5892857142857171
decision_type=2 2 2 2 2 2 2 2 2 2 2 2 2 2 2 2 2 2 2 2 2 2 2 2 2 2 2 2 2 2
left_child=1 6 5 14 8 11 18 15 22 19 23 25 -12 -6 -3 -8 17 -14 -1 28 27 -9 -5 -4 -17 -2 -27 -11 -7 -30
right_child=2 3 10 4 13 9 7 21 -10 20 12 -13 16 -15 -16 24 -18 -19 -20 -21 -22 -23 -24 -25 -26 26 -28 -29 29 -31
leaf_value=-0.071427390020250975 0.021088502356179626 -0.029361870585423645 -0.16672221519052985 0.01896292671545137 -0.020065412324353372 0.026939685778537142 -0.040010688284928195 -0.067031542584117795 0.09343397006599273 -0.031741112634176165 0.17395309184487628 0.086463877724543697 0.32404651532184015 0.011301242329970713 -0.0035541594878242158 -0.0044731196248405979 0.21407220092949172 0.66185952520370483 -0.045478801049656972 0.11498332302958501 0.20608236193381135 -0.038596270935061378 0.045235919033732613 0.14707370212084606 0.041723589870116734 0.042055722606244239 0.11541511296965393 0.15691898988249403 0.066878158339785707 0.11516288942747539
leaf_weight=5938 3545 6871 20 5559 5118 672 2139 3577 1234 82 372 1550 302 7161 11577 8432 271 25 11274 1740 439 7862 5541 412 941 4817 529 108 2667 775
leaf_count=5938 3545 6871 20 5559 5118 672 2139 3577 1234 82 372 1550 302 7161 11577 8432 271 25 11274 1740 439 7862 5541 412 941 4817 529 108 2667 775
internal_value=1.4426e-11 -0.0163103 0.0740703 0.00480031 0.0182667 0.0628113 -0.0389442 -0.0273301 0.0382167 0.0911005 0.20998 0.0452461 0.244467 -0.00177267 -0.0131663 -0.00730006 0.288331 0.349873 -0.0544309 0.0829842 0.166637 -0.047488 0.0320781 0.132546 0.000164788 0.0380605 0.0493148 0.0754973 0.0694504 0.0777499
internal_weight=101550 83224 18326 43061 24613 16924 40163 22951 12334 6483 1402 10441 970 12279 18448 11512 598 327 17212 5854 629 11439 11100 432 9373 8891 5346 190 4114 3442
internal_count=101550 83224 18326 43061 24613 16924 40163 22951 12334 6483 1402 10441 970 12279 18448 11512 598 327 17212 5854 629 11439 11100 432 9373 8891 5346 190 4114 3442
is_linear=0
shrinkage=0.1


Tree=18
num_leaves=31
num_cat=0
split_feature=4 4 0 1 3 9 1 0 1 0 9 0 6 4 6 9 2 1 6 2 8 0 0 8 6 2 1 4 9 8
split_gain=10054 3580.77 1689.68 964.373 804.815 580.079 524.681 427.023 354.963 320.871 281.501 272.643 265.192 264.76 243.166 240.003 213.145 213.14 205.643 191.49 187.872 175.392 163.536 158.175 152.477 149.065 138.45 139.854 132.527 143.32
threshold=4.1250000000000009 8.8035714285714306 2.5000000000000004 5.5000000000000009 14.071428571428573 1.0000000180025095e-35 2.5000000000000004 8.5000000000000018 4.5000000000000009 5.5000000000000009 1.0000000180025095e-35 11.500000000000002 1.5000000000000002 0.73214285714285732 5.5000000000000009 1.0000000180025095e-35 7.5000000000000009 13.500000000000002 1.0000000180025095e-35 20.500000000000004 21.888556272969343 10.500000000000002 5.5000000000000009 31.196419619271911 1.0000000180025095e-35 4.5000000000000009 8.5000000000000018 8.5178571428571441 1.0000000180025095e-35 18.821659529044034
decision_type=2 2 2 2 2 2 2 2 2 2 2 2 2 2 2 2 2 2 2 2 2 2 2 2 2 2 2 2 2 2
left_child=2 3 6 9 12 7 13 16 10 24 22 -7 -3 -1 20 17 -5 -6 -15 -17 28 -11 -4 -22 -2 -16 -18 -28 29 -14
right_child=1 4 8 5 15 11 -8 -9 -10 21 -12 -13 14 18 25 19 26 -19 -20 -21 23 -23 -24 -25 -26 -27 27 -29 -30 -31
leaf_value=-0.062706734809641632 -0.020833564985752385 0.061465747046524091 -0.019225214941042745 0.02375237053861079 0.11404509742719096 0.094638879771323389 -0.017569007423628769 0.073246429987582046 0.015922428658741713 0.025632940521447701 0.0256043987759863 0.27373244721028539 0.13011989844986066 -0.056487470024854214 0.32672273933887486 0.48395867756821898 0.037654074178240626 0.22954490064659661 -0.033793382840486101 0.15878409897839582 -0.01955575310383682 0.085360092269335205 0.0062766279252403634 0.12528539229389452 0.0088037058704710271 0.04770223388493991 0.088893025745605411 -0.060783245719291945 0.32783510055659071 0.22480146976855564
leaf_weight=6051 2247 948 14736 8145 222 1531 10058 3285 6547 6201 1902 90 403 5216 20 55 1910 570 17028 27 81 534 3032 1090 7632 449 1153 66 56 265
leaf_count=6051 2247 948 14736 8145 222 1531 10058 3285 6547 6201 1902 90 403 5216 20 55 1910 570 17028 27 81 534 3032 1090 7632 449 1153 66 56 265
internal_value=-7.41391e-11 0.0415778 -0.0238121 0.0304603 0.128675 0.0478373 -0.0371867 0.0415193 -0.00424642 0.0135373 -0.0109595 0.104582 0.10615 -0.0441601 0.124069 0.214031 0.0322746 0.19717 -0.0391149 0.376889 0.140025 0.0303685 -0.0148735 0.115266 0.00206264 0.0596008 0.0544587 0.0807891 0.180068 0.167681
internal_weight=101550 36980 64570 32794 4186 16180 38353 14559 26217 16614 19670 1621 3312 28295 2364 874 11274 792 22244 82 1895 6735 17768 1171 9879 469 3129 1219 724 668
internal_count=101550 36980 64570 32794 4186 16180 38353 14559 26217 16614 19670 1621 3312 28295 2364 874 11274 792 22244 82 1895 6735 17768 1171 9879 469 3129 1219 724 668
is_linear=0
shrinkage=0.1


Tree=19
num_leaves=31
num_cat=0
split_feature=4 2 3 1 9 0 4 0 0 9 1 1 9 9 4 6 4 6 6 9 6 6 1 1 4 1 6 9 3 3
split_gain=8187.36 2558.11 1940.56 1064.7 570.913 436.177 436.044 427.599 328.676 301.043 212.774 199.108 186.217 185.795 174.039 200.901 162.236 161.428 171.366 138.371 131.096 189.329 130.12 129.37 126.569 124.473 118.667 116.792 114.884 114.593
threshold=5.4464285714285721 3.5000000000000004 10.357142857142859 3.5000000000000004 1.0000000180025095e-35 8.5000000000000018 16.000000000000004 1.0000000180025095e-35 4.5000000000000009 1.0000000180025095e-35 9.5000000000000018 11.500000000000002 1.0000000180025095e-35 1.0000000180025095e-35 6.7321428571428585 2.5000000000000004 3.6250000000000004 1.5000000000000002 5.5000000000000009 1.0000000180025095e-35 2.5000000000000004 5.5000000000000009 18.500000000000004 4.5000000000000009 0.73214285714285732 6.5000000000000009 1.5000000000000002 1.0000000180025095e-35 5.5000000000000009 3.6428571428571437
decision_type=2 2 2 2 2 2 2 2 2 2 2 2 2 2 2 2 2 2 2 2 2 2 2 2 2 2 2 2 2 2
left_child=1 3 5 7 8 10 13 24 -3 11 17 -7 16 20 -11 -16 26 -2 27 28 -4 -22 -8 -10 -1 -5 -9 -19 -12 -6
right_child=2 4 6 25 29 9 22 12 23 14 19 -13 -14 -15 15 -17 -18 18 -20 -21 21 -23 -24 -25 -26 -27 -28 -29 -30 -31
leaf_value=-0.062882090380556796 0.011604581409091276 -0.0033255098547687969 0.073370973064251832 -0.0052485838409730493 0.029790324425596971 0.053673944840990466 0.16280072455533301 -0.045232562189462366 0.008574818383010151 0.050267213599798383 -0.021845054010696273 0.11386789206106188 -0.0018913696366186748 0.20756254601415502 0.069110011703827801 0.23795199313838233 -0.0089043609420554181 0.042324621254609236 0.0093815083762062382 0.14548628933225891 0.15061025498089967 0.053782371064599571 0.25064691548212997 0.031425300271162485 -0.042162169559994009 0.021423461562607122 -0.028274496720073979 0.094180462261170092 0.064673426697718403 0.071052457310292513
leaf_weight=4108 3490 15033 817 10130 1154 3887 347 5593 4899 133 170 640 2706 189 102 228 3303 4476 1563 193 810 269 328 5013 10442 2115 15737 481 1579 1615
leaf_count=4108 3490 15033 817 10130 1154 3887 347 5593 4899 133 170 640 2706 189 102 228 3303 4476 1563 193 810 269 328 5013 10442 2115 15737 481 1579 1615
internal_value=-2.71239e-11 -0.013931 0.0578737 -0.0265804 0.0107772 0.0452064 0.13563 -0.0341629 0.00599522 0.0700389 0.0348388 0.0621838 -0.0267922 0.113014 0.146842 0.185764 -0.0295276 0.0289619 0.0382529 0.0651311 0.10359 0.126471 0.205487 0.0201315 -0.0480122 -0.000641693 -0.0327211 0.0473564 0.056264 0.0538562
internal_weight=101550 81848 19702 54134 27714 16942 2760 41889 24945 4990 11952 4527 27339 2085 463 330 24633 10010 6520 1942 1896 1079 675 9912 14550 12245 21330 4957 1749 2769
internal_count=101550 81848 19702 54134 27714 16942 2760 41889 24945 4990 11952 4527 27339 2085 463 330 24633 10010 6520 1942 1896 1079 675 9912 14550 12245 21330 4957 1749 2769
is_linear=0
shrinkage=0.1


Tree=20
num_leaves=31
num_cat=0
split_feature=4 4 4 4 6 6 6 6 9 6 9 9 4 4 9 6 6 0 6 6 9 6 0 4 1 0 6 9 1 2
split_gain=6722.81 2842.89 867.212 823.584 678.481 711.214 513.966 725.217 311.311 254.32 300.626 248.407 209.123 181.831 177.546 177.367 271.84 174.06 170.639 246.241 163.895 163.885 161.417 157.686 144.848 143.114 130.76 221.486 127.67 184.397
threshold=3.6250000000000004 7.4821428571428585 12.267857142857144 1.4821428571428574 2.5000000000000004 4.5000000000000009 2.5000000000000004 4.5000000000000009 1.0000000180025095e-35 1.0000000180025095e-35 1.0000000180025095e-35 1.0000000180025095e-35 6.5892857142857144 5.4464285714285721 1.0000000180025095e-35 2.5000000000000004 4.5000000000000009 10.500000000000002 2.5000000000000004 5.5000000000000009 1.0000000180025095e-35 3.5000000000000004 8.5000000000000018 9.5892857142857171 9.5000000000000018 11.500000000000002 5.5000000000000009 1.0000000180025095e-35 11.500000000000002 21.500000000000004
decision_type=2 2 2 2 2 2 2 2 2 2 2 2 2 2 2 2 2 2 2 2 2 2 2 2 2 2 2 2 2 2
left_child=3 4 9 15 13 8 20 14 12 -3 23 18 -6 -2 21 -1 -17 26 -4 25 -5 -8 24 -11 -12 -20 27 -7 -13 -30
right_child=1 2 11 6 5 17 7 -9 -10 10 22 28 -14 -15 -16 16 -18 -19 19 -21 -22 -23 -24 -25 -26 -27 -28 -29 29 -31
leaf_value=-0.051024420008169306 -0.0056257393134406643 0.020637877560836612 0.10014579935003126 -0.031371129461127294 0.035661066170551488 0.012600494785180409 -0.0030480482825136256 -0.022752885235734349 0.098085322343226006 0.056718634616291889 0.035931155140435447 0.087280178588369617 0.079576907304740221 0.017281403016208518 0.053739224644269112 -0.015881057266253523 -0.047383388616389355 0.080846015144347097 0.081434506022681805 0.070015650099108678 0.0026763516594581617 0.023083406399088017 0.2001038482678788 0.093995721137698968 0.18744180658459664 0.23366605324524753 -0.0029501457729617119 0.081618336878709744 0.42645504983762905 0.089678323268890386
leaf_weight=8219 10966 945 493 14295 8402 4620 4802 10568 1074 3413 171 23 1245 5066 1028 5493 5464 341 72 161 1569 4798 280 1700 100 434 5198 517 72 21
leaf_count=8219 10966 945 493 14295 8402 4620 4802 10568 1074 3413 171 23 1245 5066 1028 5493 5464 341 72 161 1569 4798 280 1700 100 434 5198 517 72 21
internal_value=-7.94021e-12 0.0286633 0.083235 -0.0230964 0.0171669 0.0288211 -0.0143913 -0.0042032 0.0470144 0.068663 0.0766757 0.15871 0.0413287 0.00161276 0.0142418 -0.0399201 -0.0315905 0.0105512 0.144758 0.177731 -0.0280037 0.0100122 0.146856 0.0691127 0.0918391 0.212005 0.00823184 0.0195466 0.298237 0.350409
internal_weight=101550 45314 7885 56236 37429 21397 37060 21196 10721 6609 5664 1276 9647 16032 10628 19176 10957 10676 1160 667 15864 9600 551 5113 271 506 10335 5137 116 93
internal_count=101550 45314 7885 56236 37429 21397 37060 21196 10721 6609 5664 1276 9647 16032 10628 19176 10957 10676 1160 667 15864 9600 551 5113 271 506 10335 5137 116 93
is_linear=0
shrinkage=0.1


Tree=21
num_leaves=31
num_cat=0
split_feature=1 4 0 4 2 0 2 9 9 4 6 6 0 8 9 9 6 6 1 0 6 6 0 0 3 9 8 8 2 3
split_gain=5528.86 1917.34 1302.02 645.872 409.496 304.162 276.836 228.753 210.902 193.405 182.823 232.682 179.358 165.124 164.205 147.279 138.213 197.05 118.399 159.035 118.046 179.403 118.024 113.191 140.045 111.411 136.916 128.697 113.067 114.787
threshold=4.5000000000000009 7.4821428571428585 3.5000000000000004 11.946428571428573 2.5000000000000004 8.5000000000000018 4.5000000000000009 1.0000000180025095e-35 1.0000000180025095e-35 0.87500000000000011 2.5000000000000004 5.5000000000000009 3.5000000000000004 18.821659529044034 1.0000000180025095e-35 1.0000000180025095e-35 1.5000000000000002 5.5000000000000009 17.500000000000004 17.500000000000004 1.5000000000000002 4.5000000000000009 6.5000000000000009 11.500000000000002 8.3571428571428594 1.0000000180025095e-35 47.660201046892162 15.570043712813131 13.500000000000002 11.357142857142859
decision_type=2 2 2 2 2 2 2 2 2 2 2 2 2 2 2 2 2 2 2 2 2 2 2 2 2 2 2 2 2 2
left_child=2 5 4 10 9 7 22 12 13 -1 -3 25 -2 -5 -8 -6 -11 -18 -15 -20 -10 -22 -4 24 -16 26 27 -12 29 -28
right_child=1 3 6 8 15 -7 14 -9 20 16 11 -13 -14 18 23 -17 17 -19 19 -21 21 -23 -24 -25 -26 -27 28 -29 -30 -31
leaf_value=-0.045044655232965643 0.00074270106426773015 0.043007088612177335 -0.0088043804853796745 -0.11216770485043526 -0.015168139856253824 0.049760711208361029 0.014901679994403824 0.046546277792296302 0.12675246440228963 -0.035534754468464928 0.11970489698857951 0.03218729130942305 0.02021284083432992 0.11064531584942985 0.0652241895396415 0.017324912061534598 -0.01180368874145866 -0.037518471430722664 0.11369510464580126 0.23465017049179018 0.46174639178083299 0.16736854749756891 0.017402146075790801 0.25419476881623265 -0.1519837339339222 0.15810692655647818 0.18774986371902055 0.059277749890212408 0.046217294568113521 0.050302253489529616
leaf_weight=8156 7227 2365 10242 28 13707 3182 7054 2326 42 11051 473 803 13701 803 699 1553 8892 4482 213 222 47 37 2065 30 31 244 303 1383 113 76
leaf_count=8156 7227 2365 10242 28 13707 3182 7054 2326 42 11051 473 803 13701 803 699 1553 8892 4482 213 222 47 37 2065 30 31 244 303 1383 113 76
internal_value=-5.76526e-11 0.0331909 -0.0164035 0.0791257 -0.0253799 0.0207637 0.00493929 0.0167958 0.140255 -0.0317116 0.0643527 0.0792223 0.0134893 0.127975 0.0196599 -0.0118613 -0.0272594 -0.0204214 0.133407 0.175424 0.263637 0.33208 -0.00440717 0.0638238 0.0560003 0.0937937 0.0871104 0.0746776 0.134012 0.160188
internal_weight=101550 33588 67962 7152 47841 26436 20121 23254 1392 32581 5760 3395 20928 1266 7814 15260 24425 13374 1238 435 126 84 12307 760 730 2592 2348 1856 492 379
internal_count=101550 33588 67962 7152 47841 26436 20121 23254 1392 32581 5760 3395 20928 1266 7814 15260 24425 13374 1238 435 126 84 12307 760 730 2592 2348 1856 492 379
is_linear=0
shrinkage=0.1


Tree=22
num_leaves=31
num_cat=0
split_feature=4 1 0 4 2 6 4 9 0 9 9 6 0 6 6 6 9 6 6 6 3 9 9 8 0 6 6 2 6 2
split_gain=4540.64 1837.64 618.611 557.441 516.94 325.734 298.399 237.583 194.747 194.394 182.604 195.056 182.076 173.311 159.826 175.425 155.439 155.187 129.977 213.511 129.553 122.998 118.648 112.956 100.644 99.0508 152.091 98.279 94.3424 94.1536
threshold=3.7321428571428577 9.5000000000000018 3.5000000000000004 11.732142857142859 6.5000000000000009 1.0000000180025095e-35 1.5892857142857146 1.0000000180025095e-35 6.5000000000000009 1.0000000180025095e-35 1.0000000180025095e-35 2.5000000000000004 10.500000000000002 4.5000000000000009 1.5000000000000002 5.5000000000000009 1.0000000180025095e-35 3.5000000000000004 2.5000000000000004 4.5000000000000009 5.7857142857142865 1.0000000180025095e-35 1.0000000180025095e-35 6.9729430615784187 2.5000000000000004 4.5000000000000009 1.5000000000000002 3.5000000000000004 5.5000000000000009 4.5000000000000009
decision_type=2 2 2 2 2 2 2 2 2 2 2 2 2 2 2 2 2 2 2 2 2 2 2 2 2 2 2 2 2 2
left_child=2 4 6 22 5 -2 18 12 -7 14 11 -5 -6 17 -8 -16 -10 -13 -1 -20 23 29 24 -18 -3 26 -12 -22 -26 -4
right_child=1 3 21 10 7 8 9 -9 16 -11 25 13 -14 -15 15 -17 20 -19 19 -21 27 -23 -24 -25 28 -27 -28 -29 -30 -31
leaf_value=-0.041720144426535564 -0.016688632127761081 -0.01388085427320594 -0.0072701218821806012 0.07092608787598341 0.023915544346947756 0.007351971037376003 -0.030642581102435392 0.076018496447337755 0.023364437811378508 0.010032104129215876 0.16630449156935623 0.13574379517520604 0.064672859001429647 0.10308937874013446 -0.0065208716640910592 -0.031810739028879924 0.25499728781481584 0.26458275333125758 -0.011286549336387125 -0.038798569760321228 0.0089452308277751125 0.031206597242960515 0.10665679668197137 0.031341563306470935 0.062793612506188853 0.10506284692708184 0.43117895466477973 0.17957751619018569 0.013908362645198638 0.013575465768835785
leaf_weight=9035 4422 207 8749 473 9682 15249 8082 1166 4961 2494 41 185 1236 352 10619 3698 24 189 5410 5894 43 1225 478 382 3695 34 46 157 442 2880
leaf_count=9035 4422 207 8749 473 9682 15249 8082 1166 4961 2494 41 185 1236 352 10619 3698 24 189 5410 5894 43 1225 478 382 3695 34 46 157 442 2880
internal_value=-3.93427e-12 0.024445 -0.0182914 0.0751315 0.0161036 0.00796001 -0.0237928 0.0331118 0.0131962 -0.016451 0.132711 0.120896 0.0285296 0.153452 -0.0193997 -0.0130531 0.0292045 0.200852 -0.0327784 -0.0256315 0.0770144 0.0010673 0.0593692 0.0445626 0.0541659 0.249792 0.306353 0.142892 0.0575707 -0.00210757
internal_weight=101550 43464 58086 6142 37322 25238 45232 12084 20816 24893 1320 1199 10918 726 22399 14317 5567 374 20339 11304 606 12854 4822 406 4344 121 87 200 4137 11629
internal_count=101550 43464 58086 6142 37322 25238 45232 12084 20816 24893 1320 1199 10918 726 22399 14317 5567 374 20339 11304 606 12854 4822 406 4344 121 87 200 4137 11629
is_linear=0
shrinkage=0.1


Tree=23
num_leaves=31
num_cat=0
split_feature=1 0 4 1 4 2 0 9 6 6 9 9 0 6 6 0 6 6 6 6 0 2 1 6 6 0 6 6 4 9
split_gain=3784.51 1137.56 1061.93 387.374 331.396 259.771 192.115 189.626 186.637 176.837 161.703 158.963 157.372 146.344 145.239 136.45 126.615 118.24 193.949 117.431 116.857 110.965 122.243 104.375 102.133 141.872 98.7914 168.366 94.844 90.7363
threshold=5.5000000000000009 3.5000000000000004 7.4821428571428585 13.500000000000002 1.6964285714285716 4.5000000000000009 12.500000000000002 1.0000000180025095e-35 1.0000000180025095e-35 2.5000000000000004 1.0000000180025095e-35 1.0000000180025095e-35 8.5000000000000018 5.5000000000000009 4.5000000000000009 16.500000000000004 2.5000000000000004 2.5000000000000004 5.5000000000000009 3.5000000000000004 12.500000000000002 7.5000000000000009 6.5000000000000009 2.5000000000000004 1.0000000180025095e-35 8.5000000000000018 5.5000000000000009 2.5000000000000004 0.44642857142857145 1.0000000180025095e-35
decision_type=2 2 2 2 2 2 2 2 2 2 2 2 2 2 2 2 2 2 2 2 2 2 2 2 2 2 2 2 2 2
left_child=1 4 7 11 17 -3 -5 12 -6 -8 -7 26 21 16 19 24 -10 -1 28 -11 -9 -2 -23 -12 25 -13 27 -4 -19 -21
right_child=2 5 3 6 8 10 9 20 13 14 23 15 -14 -15 -16 -17 -18 18 -20 29 -22 22 -24 -25 -26 -27 -28 -29 -30 -31
leaf_value=-0.037068992287390683 0.0098458285488060709 -0.0024992542907444509 0.034292793176299893 0.074053189985965398 -0.028365718669940448 0.013912993053810014 0.076952770480149715 0.047927479853173277 -0.011879753558517088 0.15329916777440927 0.0083239087590165541 0.090459683537483224 0.041593138649142374 -0.023654582507003478 0.11693007579218327 0.36597411438822747 0.0051047598275571412 -0.041101205097763764 -0.043141812613764978 0.2495905436575413 0.23237662221305075 -0.0028003702219149738 0.046360267704875974 0.075950657496178131 0.1179149041044487 -0.23193083192620959 0.01285938578887762 0.075108696732831812 -0.010673826312389367 0.47566791184246543
leaf_weight=9918 11847 14616 2000 709 6001 9666 258 1844 9816 143 331 39 2396 4999 232 20 7939 1181 3283 158 35 697 1844 735 384 21 648 2043 7727 20
leaf_count=9918 11847 14616 2000 709 6001 9666 258 1844 9816 143 331 39 2396 4999 232 20 7939 1181 3283 158 35 697 1844 735 384 21 648 2043 7727 20
internal_value=5.18472e-11 -0.0111311 0.0334804 0.067712 -0.0197558 0.00617535 0.112076 0.0212371 -0.012678 0.145317 0.0179894 0.0546308 0.0178645 -0.00854066 0.177212 0.110466 -0.00428527 -0.0289611 -0.022365 0.22078 0.0513632 0.013913 0.0328754 0.0549521 0.0989565 -0.022377 0.049108 0.0549178 -0.0147078 0.274992
internal_weight=101550 76212 25338 6675 50864 25348 1520 18663 28755 811 10732 5155 16784 22754 553 464 17755 22109 12191 321 1879 14388 2541 1066 444 60 4691 4043 8908 178
internal_count=101550 76212 25338 6675 50864 25348 1520 18663 28755 811 10732 5155 16784 22754 553 464 17755 22109 12191 321 1879 14388 2541 1066 444 60 4691 4043 8908 178
is_linear=0
shrinkage=0.1


Tree=24
num_leaves=31
num_cat=0
split_feature=4 0 0 2 1 1 2 4 9 9 9 1 6 6 6 9 5 3 0 8 2 9 1 8 2 6 6 4 3 2
split_gain=3109.97 1107.68 649.994 374.988 299.214 228.822 218.483 172.397 159.286 158.34 155.082 124.779 123.786 113.177 123.619 124.837 105.642 103.201 100.44 113.707 103.6 99.5067 92.9374 88.3382 86.1205 85.964 94.3358 86.0341 82.0174 116.62
threshold=5.8392857142857144 3.5000000000000004 12.500000000000002 3.5000000000000004 8.5000000000000018 18.500000000000004 5.5000000000000009 0.66071428571428592 1.0000000180025095e-35 1.0000000180025095e-35 1.0000000180025095e-35 4.5000000000000009 1.0000000180025095e-35 1.5000000000000002 5.5000000000000009 1.0000000180025095e-35 3.5000000000000004 5.5000000000000009 27.500000000000004 14.843010048730783 11.500000000000002 1.0000000180025095e-35 6.5000000000000009 47.660201046892162 12.500000000000002 5.5000000000000009 2.5000000000000004 3.4821428571428577 15.214285714285717 17.500000000000004
decision_type=2 2 2 2 2 2 2 2 2 2 2 2 2 2 2 2 2 2 2 2 2 2 2 2 2 2 2 2 2 2
left_child=1 3 4 7 13 10 11 -1 12 -5 18 -3 -9 23 15 -15 -12 -6 19 -4 -21 -8 -11 -2 -22 26 27 -14 -7 -30
right_child=2 6 5 9 17 28 21 8 -10 22 16 -13 25 14 -16 -17 -18 -19 -20 20 24 -23 -24 -25 -26 -27 -28 -29 29 -31
leaf_value=-0.037429945307694633 0.0095344624882282552 -0.0035367842876661646 0.0067334113956754472 -0.0047581413077644984 -0.0090358953824055295 0.064348189714912546 0.017408147709036287 -0.032816321315887777 0.0013102405541695944 0.02404329616476017 -0.013672000887217345 0.012218513130780755 -0.024376090108728279 0.031395870456469598 0.0033931308718148766 0.087439995161555373 0.20236658171085375 0.054140396831059978 -0.14571653905917298 0.056138820411913794 0.19130579084288504 0.052891589075836458 0.11669905168353581 -0.063741855831795383 0.093366935137679352 -0.028419386502345059 -0.0072579660346729705 0.00085505527188439701 0.26965503869402524 0.13716515518274955
leaf_weight=5443 3020 13815 249 11099 273 68 7678 6598 3702 1106 27 7902 9521 4293 1471 438 140 4891 22 829 107 881 120 174 558 5662 9604 1575 106 178
leaf_count=5443 3020 13815 249 11099 273 68 7678 6598 3702 1106 27 7902 9521 4293 1471 438 140 4891 22 829 107 881 120 174 558 5662 9604 1575 106 178
internal_value=-4.80394e-11 -0.00780375 0.0392439 -0.0163324 0.0314636 0.088842 0.00752898 -0.0208231 -0.0183576 -0.000991062 0.0753316 0.00219598 -0.0205666 0.020836 0.0287121 0.0365845 0.167438 0.0508005 0.0666167 0.0692967 0.0797239 0.0210606 0.0331124 0.00554258 0.109126 -0.0175007 -0.0145142 -0.0207947 0.162996 0.186616
internal_weight=101550 84706 16844 54430 14560 2284 30276 42105 36662 12325 1932 21717 32960 9396 6202 4731 167 5164 1765 1743 1494 8559 1226 3194 665 26362 20700 11096 352 284
internal_count=101550 84706 16844 54430 14560 2284 30276 42105 36662 12325 1932 21717 32960 9396 6202 4731 167 5164 1765 1743 1494 8559 1226 3194 665 26362 20700 11096 352 284
is_linear=0
shrinkage=0.1


Tree=25
num_leaves=31
num_cat=0
split_feature=4 4 6 6 1 3 4 6 9 4 9 4 8 8 8 6 0 1 1 4 5 6 8 4 8 6 6 6 0 8
split_gain=2552.81 1043.74 370.776 465.457 347.345 325.003 177.673 169.51 161.34 155.176 154.053 145.8 144.996 198.02 135.68 124.032 116.899 137.901 117.041 115.163 132.013 150.446 113.887 112.421 99.1651 97.6135 96.3138 207.246 95.0167 94.4176
threshold=3.6250000000000004 7.4821428571428585 2.5000000000000004 4.5000000000000009 3.5000000000000004 13.785714285714286 1.0892857142857146 1.0000000180025095e-35 1.0000000180025095e-35 6.4821428571428585 1.0000000180025095e-35 7.5892857142857144 23.781731941559816 26.885421719859959 22.847913300666342 1.0000000180025095e-35 8.5000000000000018 9.5000000000000018 11.500000000000002 11.053571428571431 9.5000000000000018 4.5000000000000009 29.84931567420119 13.053571428571431 30.652757672493355 1.5000000000000002 4.5000000000000009 3.5000000000000004 10.500000000000002 6.025325744311572
decision_type=2 2 2 2 2 2 2 2 2 2 2 2 2 2 2 2 2 2 2 2 2 2 2 2 2 2 2 2 2 2
left_child=4 2 29 9 6 7 -1 -3 19 12 15 -10 14 -14 -4 -8 17 -13 -19 -9 -21 23 -15 -22 -11 -7 27 -6 -5 -2
right_child=1 5 3 28 26 25 10 8 11 24 -12 16 13 22 -16 -17 -18 18 -20 20 21 -23 -24 -25 -26 -27 -28 -29 -30 -31
leaf_value=-0.028810341322808783 -0.035178837742541429 0.0050128139735710238 0.043066851356978714 0.0028185232220308038 -0.0050897162671766352 0.054883510629205323 -0.031006115383695555 0.037748529131426345 0.289267320068259 0.039439242282562195 0.0060621245924360129 -0.022576218733284015 -0.019551872718036319 0.068461231790039864 0.17042286612180085 -0.013811295694335549 0.12969547938298562 0.25550240388228779 0.032007061535457397 0.053175634265870089 0.16057843427572932 0.030928346067667006 0.022675814722785861 0.39482671245932582 0.090631958009924185 0.12651425179311571 -0.01384560239374056 0.027204438928092291 0.056468788262926423 0.00091177991432403482
leaf_weight=11794 761 992 3064 10335 5555 266 5073 4489 38 800 3281 153 1043 620 86 24240 290 42 53 645 140 85 4390 24 718 668 3199 3094 341 15271
leaf_count=11794 761 992 3064 10335 5555 266 5073 4489 38 800 3281 153 1043 620 86 24240 290 42 53 645 140 85 4390 24 718 668 3199 3094 341 15271
internal_value=-2.79946e-11 0.0176628 0.010697 0.0193122 -0.0142324 0.0507289 -0.0182928 0.0432869 0.0496584 0.0340303 -0.014487 0.0999603 0.0291441 0.0200892 0.0465439 -0.0167871 0.0865892 0.0361827 0.130816 0.0442759 0.0770515 0.138899 0.0283419 0.194859 0.0636529 0.106114 0.000979497 0.00646285 0.00453216 -0.000801354
internal_weight=101550 45314 37429 21397 56236 7885 44388 6951 5959 10721 32594 576 9203 6053 3150 29313 538 248 95 5383 894 249 5010 164 1518 934 11848 8649 10676 16032
internal_count=101550 45314 37429 21397 56236 7885 44388 6951 5959 10721 32594 576 9203 6053 3150 29313 538 248 95 5383 894 249 5010 164 1518 934 11848 8649 10676 16032
is_linear=0
shrinkage=0.1


Tree=26
num_leaves=31
num_cat=0
split_feature=0 1 0 4 2 1 9 1 5 2 6 6 4 3 6 9 2 1 5 4 0 1 2 1 5 4 9 3 9 9
split_gain=2120.79 739.245 609.482 238.98 201.427 194.053 182.702 158.205 151.691 149.57 141.052 102.639 106.719 102.575 107.715 109.715 97.3906 92.6359 110.415 88.3375 88.7462 87.9732 87.9246 96.8946 137.613 91.7895 86.4399 79.7669 79.0696 77.5411
threshold=5.5000000000000009 3.5000000000000004 12.500000000000002 9.0535714285714306 3.5000000000000004 6.5000000000000009 1.0000000180025095e-35 17.500000000000004 3.5000000000000004 6.5000000000000009 2.5000000000000004 1.0000000180025095e-35 0.5892857142857143 6.2142857142857153 1.0000000180025095e-35 1.0000000180025095e-35 12.500000000000002 11.500000000000002 6.5000000000000009 19.517857142857146 23.500000000000004 18.500000000000004 8.5000000000000018 10.500000000000002 4.5000000000000009 7.8750000000000009 1.0000000180025095e-35 6.5000000000000009 1.0000000180025095e-35 1.0000000180025095e-35
decision_type=2 2 2 2 2 2 2 2 2 2 2 2 2 2 2 2 2 2 2 2 2 2 2 2 2 2 2 2 2 2
left_child=1 4 5 9 11 26 7 19 -8 29 21 -1 -13 16 -15 -16 -7 22 -19 20 -4 -9 25 24 -24 27 -2 -17 -6 -3
right_child=2 3 6 -5 28 13 8 10 -10 -11 -12 12 -14 14 15 17 -18 18 -20 -21 -22 -23 23 -25 -26 -27 -28 -29 -30 -31
leaf_value=-0.028712224447349711 0.009746214845905701 -0.00098478398869386477 0.052684615197752943 0.10349689992370936 -0.0058758126577751583 0.019221926696293315 -0.029820524859759546 -0.14301216403643291 0.19414893464830818 0.021028750551132389 0.1591957996123772 -0.031486927075812042 -0.01388265918058814 -0.00095133601715454677 0.039548293899250103 0.23881922732381261 -0.20206600680947304 -0.087023915141298064 0.10167821974986618 0.21878553874069648 -0.070026453914212403 0.072719431723980751 0.1869587784315028 0.2381252646446228 -0.029365582311024457 0.25590568019816762 0.0360148835781708 0.056963998059102572 0.022887975186756126 0.019889624952178921
leaf_weight=7916 12278 18581 1742 247 9467 3567 36 24 189 4563 281 3917 28489 586 4558 34 20 57 68 31 61 89 41 27 104 68 1395 83 1063 1968
leaf_count=7916 12278 18581 1742 247 9467 3567 36 24 189 4563 281 3917 28489 586 4558 34 20 57 68 31 61 89 41 27 104 68 1395 83 1063 1968
internal_value=-1.3401e-11 -0.00833288 0.0250624 0.00561388 -0.0152879 0.019985 0.0724344 0.0637617 0.158314 0.00465111 0.121253 -0.0185041 -0.0160105 0.0312027 0.0396281 0.0443462 0.0179881 0.0897176 0.01563 0.0514108 0.048533 0.0269003 0.115659 0.06419 0.031802 0.163511 0.0124263 0.109811 -0.00297212 0.00101438
internal_weight=101550 76211 25339 25359 50852 22886 2453 2228 225 25112 394 40322 32406 9213 5626 5040 3587 482 125 1834 1803 113 357 172 145 185 13673 117 10530 20549
internal_count=101550 76211 25339 25359 50852 22886 2453 2228 225 25112 394 40322 32406 9213 5626 5040 3587 482 125 1834 1803 113 357 172 145 185 13673 117 10530 20549
is_linear=0
shrinkage=0.1


Tree=27
num_leaves=31
num_cat=0
split_feature=1 2 2 9 4 1 6 9 6 6 3 0 4 0 4 9 6 9 6 2 0 6 4 4 6 0 3 3 8 4
split_gain=1743.25 661.888 380.387 204.169 189.731 154.26 153.723 147.322 119.851 252.358 112.085 117.47 101.382 96.6263 96.151 96.1111 93.9138 126.807 121.984 104.755 79.259 77.5295 120.176 153.951 99.3735 78.5311 77.5659 147.905 77.3303 88.2237
threshold=6.5000000000000009 3.5000000000000004 11.500000000000002 1.0000000180025095e-35 1.3392857142857146 10.500000000000002 1.0000000180025095e-35 1.0000000180025095e-35 4.5000000000000009 3.5000000000000004 3.9285714285714293 11.500000000000002 7.3392857142857144 2.5000000000000004 9.196428571428573 1.0000000180025095e-35 5.5000000000000009 1.0000000180025095e-35 3.5000000000000004 21.500000000000004 18.500000000000004 5.5000000000000009 7.1250000000000009 9.0535714285714306 3.5000000000000004 1.0000000180025095e-35 11.071428571428573 9.3571428571428594 34.939922259964966 8.9107142857142865
decision_type=2 2 2 2 2 2 2 2 2 2 2 2 2 2 2 2 2 2 2 2 2 2 2 2 2 2 2 2 2 2
left_child=1 4 3 13 -1 -4 -6 8 9 12 15 -12 -3 -2 -11 -8 17 18 -7 -19 -20 24 -23 -24 25 -5 27 -27 29 -15
right_child=2 7 5 21 6 16 10 -9 -10 14 11 -13 -14 28 -16 -17 -18 19 20 -21 -22 22 23 -25 -26 26 -28 -29 -30 -31
leaf_value=-0.02185388704564413 -0.0060609259799519191 -0.0013721468421339449 0.033379007782394672 0.23885077863931656 -0.021904345996119734 0.054920806933054393 -0.01033498364143815 0.026657110834375743 -0.0070091027096667764 0.026165116046473515 0.0068960549097935864 0.15135254708216772 0.030305525345361923 0.011748242810174883 0.22277726471051573 0.01021757688927348 0.01822967214824919 0.21821633750509661 0.095213883636635174 -0.029280968010425568 0.18261844466669838 -0.072390204583698853 0.18907418377124346 -0.1171156154324611 0.099721091952821861 0.043015448493473739 0.18343183837298838 -0.14050578952152679 0.031264616425317325 0.051948945033191245
leaf_weight=16057 1445 13505 1068 20 7260 740 22845 3026 7874 4907 4536 57 1092 6874 25 2527 201 118 418 20 138 106 52 24 524 669 35 47 4747 593
leaf_count=16057 1445 13505 1068 20 7260 740 22845 3026 7874 4907 4536 57 1092 6874 25 2527 201 118 418 20 138 106 52 24 524 669 35 47 4747 593
internal_value=-4.6274e-11 -0.0060483 0.0283822 0.0222113 -0.0127681 0.0629371 -0.00884891 0.0057182 0.00340601 0.00760533 -0.00568581 0.00868879 0.000997656 0.0183921 0.0271617 -0.00828799 0.0822448 0.0912176 0.081514 0.182347 0.116908 0.0575303 -0.00358395 0.0923827 0.0661193 0.0432824 0.0380741 0.0309687 0.0212851 0.0149408
internal_weight=101550 83711 17839 15136 53282 2703 37225 30429 27403 19529 29965 4593 14597 13659 4932 25372 1635 1434 1296 138 556 1477 182 76 1295 771 751 716 12214 7467
internal_count=101550 83711 17839 15136 53282 2703 37225 30429 27403 19529 29965 4593 14597 13659 4932 25372 1635 1434 1296 138 556 1477 182 76 1295 771 751 716 12214 7467
is_linear=0
shrinkage=0.1


Tree=28
num_leaves=31
num_cat=0
split_feature=0 1 0 4 6 4 9 4 5 8 3 2 6 6 9 0 6 6 6 6 6 8 6 6 6 6 4 9 1 3
split_gain=1455.45 506.922 417.188 179.876 146.05 184.052 134.031 127.862 121.864 116.443 111.998 107.237 104.548 127.406 100.888 84.9029 76.4814 75.2625 71.7704 126.986 70.6851 82.0891 69.1462 69.1376 68.3429 64.3154 62.8944 60.7806 60.4376 67.2183
threshold=5.5000000000000009 3.5000000000000004 12.500000000000002 9.0535714285714306 1.0000000180025095e-35 7.4821428571428585 1.0000000180025095e-35 1.267857142857143 3.5000000000000004 22.847913300666342 15.785714285714286 6.5000000000000009 4.5000000000000009 3.5000000000000004 1.0000000180025095e-35 23.500000000000004 1.5000000000000002 5.5000000000000009 2.5000000000000004 4.5000000000000009 5.5000000000000009 15.570043712813131 4.5000000000000009 2.5000000000000004 3.5000000000000004 1.5000000000000002 6.4107142857142874 1.0000000180025095e-35 14.500000000000002 13.071428571428573
decision_type=2 2 2 2 2 2 2 2 2 2 2 2 2 2 2 2 2 2 2 2 2 2 2 2 2 2 2 2 2 2
left_child=1 7 4 11 28 12 10 -1 -8 17 15 18 13 -6 16 -4 -9 -7 -3 24 21 -18 23 -13 -20 -12 -15 -5 29 -2
right_child=2 3 6 27 5 9 8 14 -10 -11 25 22 -14 26 -16 -17 20 -19 19 -21 -22 -23 -24 -25 -26 -27 -28 -29 -30 -31
leaf_value=-0.020523858451221483 -0.0092351006495934394 -0.0069107879516457056 0.04316871213578849 0.073292898802992987 0.01229886766356819 0.073013718949636708 -0.035115086866749655 -0.017318508894220687 0.16563079586429966 0.026313923822776298 0.03329334289512851 0.0096037053551070728 0.0025196529183325331 0.029028800404567963 0.0063916477129274179 -0.12940227368782306 0.013846642431760077 0.0090087991282978858 0.0043864704548618556 -0.0054235066196451345 -0.016992010353374904 -0.0069318323283709335 -0.0018663775918047365 0.038801945204783 0.024267011070006644 0.11426261730921206 0.064244104757116338 0.24077668151197337 0.087768558618272596 -0.14711389185653792
leaf_weight=14706 1984 7690 1685 223 7788 1114 36 12611 189 2686 132 1496 5088 3308 3612 29 2254 220 3396 5940 5517 12152 1296 1771 3523 382 599 24 63 36
leaf_count=14706 1984 7690 1685 223 7788 1114 36 12611 189 2686 132 1496 5088 3308 3612 29 2254 220 3396 5940 5517 12152 1296 1771 3523 382 599 24 63 36
internal_value=-1.64124e-11 -0.0069031 0.0207621 0.00464605 0.0165613 0.0190891 0.059955 -0.0126625 0.133511 0.0383081 0.0525268 0.00381077 0.0144857 0.0196916 -0.00946404 0.0402489 -0.0112244 0.0624582 0.0007314 0.00530162 -0.00736687 -0.00368078 0.0176784 0.0254317 0.0145092 0.093469 0.0344278 0.0895666 -0.00868417 -0.0116923
internal_weight=101550 76211 25339 25359 22886 20803 2453 50852 225 4020 2228 25112 16783 11695 36146 1714 32534 1334 20549 12859 19923 14406 4563 3267 6919 514 3907 247 2083 2020
internal_count=101550 76211 25339 25359 22886 20803 2453 50852 225 4020 2228 25112 16783 11695 36146 1714 32534 1334 20549 12859 19923 14406 4563 3267 6919 514 3907 247 2083 2020
is_linear=0
shrinkage=0.1


Tree=29
num_leaves=31
num_cat=0
split_feature=4 1 6 6 6 6 4 4 6 9 2 8 8 0 5 8 8 8 6 6 4 4 8 6 6 2 3 8 0 0
split_gain=1227.87 502.758 222.429 255.909 201.957 430.293 161.92 144.35 114.024 112.377 117.847 98.3499 149.927 97.4652 93.6109 91.0234 87.0084 91.9562 86.5823 89.4485 84.5295 78.844 78.3689 77.7684 108.274 93.6618 107.079 72.6207 70.9017 124.296
threshold=3.6250000000000004 9.5000000000000018 2.5000000000000004 4.5000000000000009 2.5000000000000004 4.5000000000000009 6.9107142857142874 12.267857142857144 3.5000000000000004 1.0000000180025095e-35 21.500000000000004 23.781731941559816 26.569292227254945 17.500000000000004 7.5000000000000009 22.847913300666342 41.904969818480083 6.025325744311572 4.5000000000000009 1.5000000000000002 5.2678571428571432 6.5535714285714297 15.570043712813131 2.5000000000000004 5.5000000000000009 15.500000000000002 16.357142857142858 40.744816213805386 19.500000000000004 22.500000000000004
decision_type=2 2 2 2 2 2 2 2 2 2 2 2 2 2 2 2 2 2 2 2 2 2 2 2 2 2 2 2 2 2
left_child=4 2 16 6 -1 8 11 -3 -6 23 18 15 -13 -5 -8 20 17 -2 19 -11 -4 -18 -10 -9 25 26 -25 -19 -27 -30
right_child=1 7 3 13 5 -7 14 9 22 10 -12 12 -14 -15 -16 -17 21 27 -20 -21 -22 -23 -24 24 -26 28 -28 -29 29 -31
leaf_value=-0.01679495802354309 -0.030482527917619153 0.03151073302111073 0.045599043730905529 0.0037436283748845697 -0.0015605707178952607 -0.016284628613145564 0.033808009801813692 0.027356564350750137 0.037766792225618795 0.16395232468715004 -0.036272559924559161 -0.021566689119940488 0.020583351953345853 0.16631442831980217 0.083478846419880959 0.13023271999150818 -0.0202666386063723 0.0038567163470527434 0.063906623671452209 0.41024585554997128 0.010931396316607472 0.017909185544004346 0.010941219858280386 0.12250563174005479 0.0073131863648692773 0.027847475602575941 0.30788209186150484 0.042437256225494768 0.24445926940534266 0.036314659053459764
leaf_weight=24083 757 5020 1831 11161 8058 16032 849 414 1298 29 22 1018 4934 37 686 98 3154 12326 24 30 1142 653 6765 155 144 167 39 508 52 64
leaf_count=24083 757 5020 1831 11161 8058 16032 849 414 1298 29 22 1018 4934 37 686 98 3154 12326 24 30 1142 653 6765 155 144 167 39 508 52 64
internal_value=1.43043e-11 0.0122497 0.00807177 0.0148119 -0.00987063 -0.00468422 0.0259814 0.0388056 0.00685215 0.0709288 0.169502 0.0208735 0.0133742 0.00428079 0.0560062 0.0354081 -0.000356681 0.00338612 0.224045 0.289186 0.0322824 -0.0137185 0.0152597 0.0609285 0.0833099 0.106252 0.159772 0.00538383 0.0695638 0.129621
internal_weight=101550 45314 39154 21756 56236 32153 10558 6160 16121 1140 105 9023 5952 11198 1535 3071 17398 13591 83 59 2973 3807 8063 1035 621 477 194 12834 283 116
internal_count=101550 45314 39154 21756 56236 32153 10558 6160 16121 1140 105 9023 5952 11198 1535 3071 17398 13591 83 59 2973 3807 8063 1035 621 477 194 12834 283 116
is_linear=0
shrinkage=0.1


Tree=30
num_leaves=31
num_cat=0
split_feature=4 1 6 6 9 6 6 4 2 9 8 6 8 4 2 2 1 4 8 4 9 3 4 6 1 0 6 1 0 2
split_gain=997.155 411.204 189.581 215.068 163.798 154.484 345.861 130.811 124.094 104.738 85.6206 81.8621 80.5015 75.3426 89.1441 81.7537 71.974 67.2604 66.1661 64.9992 64.0505 66.6015 115.853 66.3926 77.1828 63.2019 70.3748 82.7049 116.933 66.9417
threshold=3.5535714285714293 9.5000000000000018 2.5000000000000004 5.5000000000000009 1.0000000180025095e-35 2.5000000000000004 4.5000000000000009 7.0178571428571432 11.500000000000002 1.0000000180025095e-35 15.570043712813131 5.5000000000000009 41.904969818480083 18.553571428571434 12.500000000000002 15.500000000000002 13.500000000000002 6.5535714285714297 6.025325744311572 1.767857142857143 1.0000000180025095e-35 16.642857142857149 17.410714285714288 3.5000000000000004 11.500000000000002 5.5000000000000009 1.0000000180025095e-35 7.5000000000000009 8.5000000000000018 5.5000000000000009
decision_type=2 2 2 2 2 2 2 2 2 2 2 2 2 2 2 2 2 2 2 2 2 2 2 2 2 2 2 2 2 2
left_child=5 2 12 4 7 19 9 -4 -3 10 -7 13 18 14 -10 -15 -17 -14 -2 -1 21 22 -16 24 -22 -19 -27 28 -28 -30
right_child=1 8 3 -5 -6 6 -8 -9 11 -11 -12 -13 17 15 20 16 -18 25 -20 -21 23 -23 -24 -25 -26 26 27 -29 29 -31
leaf_value=-0.020969356256381484 -0.025331973835734947 0.025397621073469191 0.012065554840468614 -0.0031949365960297926 0.048833290265590606 0.021308329338371748 -0.015012252884618108 0.039622503140307505 0.10172546147071303 0.030545917326570124 -8.1745811145141341e-05 0.00076344811763518904 -0.019021941267242361 0.22535263311404449 0.02794241545933553 -0.08581987563520671 0.10529159954379474 0.074608884312005505 0.0046821051035498681 -0.010432651299306971 0.32093137917311299 0.088169946929429505 -0.17913426055040743 0.0049907929188496361 0.098874366583720771 -0.051798518842884479 -0.021296050176024438 -0.029981124913599024 0.30335904777050021 0.10068223860792139
leaf_weight=10695 778 4270 12861 5869 1665 2216 15714 1989 313 1559 12032 234 3284 52 770 22 189 144 13133 12936 23 179 28 37 49 175 80 146 20 88
leaf_count=10695 778 4270 12861 5869 1665 2216 15714 1989 313 1559 12032 234 3284 52 770 22 189 144 13133 12936 23 179 28 37 49 175 80 146 20 88
internal_value=-1.69722e-11 0.0108037 0.0071182 0.0132479 0.0190912 -0.00908888 -0.00450639 0.0157565 0.0348508 0.00593767 0.00324507 0.0561405 -0.000569308 0.0639373 0.0547057 0.113043 0.0853653 -0.0131935 0.00300351 -0.0152014 0.041154 0.0330423 0.0206766 0.113862 0.169809 0.0161183 -0.000429177 0.0264859 0.0703379 0.138215
internal_weight=101550 46398 40232 22384 16515 55152 31521 14850 6166 15807 14248 1896 17848 1662 1399 263 211 3937 13911 23631 1086 977 798 109 72 653 509 334 188 108
internal_count=101550 46398 40232 22384 16515 55152 31521 14850 6166 15807 14248 1896 17848 1662 1399 263 211 3937 13911 23631 1086 977 798 109 72 653 509 334 188 108
is_linear=0
shrinkage=0.1


Tree=31
num_leaves=31
num_cat=0
split_feature=2 0 0 9 4 1 6 0 6 6 6 6 1 6 2 1 9 9 4 8 3 0 8 6 6 6 3 5 4 2
split_gain=827.201 284.184 221.619 134.711 127.733 116.743 102.137 122.271 97.3624 91.7677 89.9457 164.373 89.314 88.4114 297.766 135.181 85.5495 84.7217 84.3425 93.945 83.8307 94.1617 77.6215 77.7827 112.716 95.9314 88.3468 71.9289 69.2101 69.0307
threshold=4.5000000000000009 12.500000000000002 3.5000000000000004 1.0000000180025095e-35 9.3392857142857171 8.5000000000000018 2.5000000000000004 9.5000000000000018 3.5000000000000004 1.0000000180025095e-35 4.5000000000000009 2.5000000000000004 7.5000000000000009 4.5000000000000009 6.5000000000000009 9.5000000000000018 1.0000000180025095e-35 1.0000000180025095e-35 6.9464285714285721 8.4959944809899692 12.214285714285717 9.5000000000000018 18.821659529044034 5.5000000000000009 3.5000000000000004 4.5000000000000009 8.5000000000000018 3.5000000000000004 6.6964285714285721 8.5000000000000018
decision_type=2 2 2 2 2 2 2 2 2 2 2 2 2 2 2 2 2 2 2 2 2 2 2 2 2 2 2 2 2 2
left_child=2 3 17 5 9 10 20 -8 -6 -4 11 -2 -11 14 -9 -15 22 -1 19 -13 21 29 -3 24 -24 26 -26 -18 -16 -5
right_child=1 16 4 6 8 -7 7 13 -10 12 -12 18 -14 15 28 -17 27 -19 -20 -21 -22 -23 23 -25 25 -27 -28 -29 -30 -31
leaf_value=-0.011427189400970046 -0.0014252740661334104 -0.00050668694001312063 -0.016762130030982061 -0.0048303395180357492 0.051464805516757466 0.021610660532785878 0.034908039298465282 0.46224614425941751 0.28198871789155183 0.0021436437264464744 -0.0049097694260695698 0.060743486454021181 0.026475698145213375 0.12527911635832145 -0.052200574255906622 -0.15398652395949916 -0.031381238717585802 0.0024879491786885372 0.048562462435671874 0.012644149539957553 0.2020204006916001 -0.1039156495081261 0.034689697239739276 -0.009475868914694506 0.043573439733958559 0.045969567930057811 0.1569843683204043 0.13112511580270497 0.13713322108487289 0.062875150904843677
leaf_weight=43162 7846 375 2308 726 57 5273 1856 27 27 15963 6442 430 1666 52 26 26 32 4869 847 7295 21 80 886 196 95 271 248 183 75 190
leaf_count=43162 7846 375 2308 726 57 5273 1856 27 27 15963 6442 430 1666 52 26 26 32 4869 847 7295 21 80 886 196 95 271 248 183 75 190
internal_value=4.68152e-12 0.012864 -0.0063322 0.0103713 0.00250675 0.00819794 0.0302297 0.0430207 0.125562 0.00198829 0.0051041 0.00903329 0.0044431 0.116113 0.167253 0.0321906 0.046898 -0.0100166 0.0186061 0.0153215 0.0042956 0.000126707 0.040665 0.0497684 0.0575096 0.0904387 0.125573 0.106938 0.0883938 0.00921338
internal_weight=101550 33498 68052 31212 20021 28133 3079 2062 84 19937 22860 16418 17629 206 128 78 2286 48031 8572 7725 1017 996 2071 1696 1500 614 343 215 101 916
internal_count=101550 33498 68052 31212 20021 28133 3079 2062 84 19937 22860 16418 17629 206 128 78 2286 48031 8572 7725 1017 996 2071 1696 1500 614 343 215 101 916
is_linear=0
shrinkage=0.1


Tree=32
num_leaves=31
num_cat=0
split_feature=4 0 6 1 6 6 8 4 6 6 1 8 6 9 9 9 5 3 3 8 5 2 3 3 4 5 0 2 0 3
split_gain=688.232 285.995 161.393 144.893 113.888 236.975 90.4271 84.377 81.7307 93.3239 104.861 79.6559 77.2163 116.143 69.2429 66.4275 90.7639 105.463 106.318 80.7278 70.1947 64.4605 63.8724 126.238 85.0684 82.3875 60.5168 71.3652 59.546 59.1376
threshold=3.2678571428571432 10.500000000000002 1.0000000180025095e-35 7.5000000000000009 2.5000000000000004 4.5000000000000009 40.744816213805386 1.5892857142857146 5.5000000000000009 2.5000000000000004 17.500000000000004 4.8581964982655252 5.5000000000000009 1.0000000180025095e-35 1.0000000180025095e-35 1.0000000180025095e-35 9.5000000000000018 6.3571428571428585 7.6428571428571432 42.671826450322634 10.500000000000002 24.500000000000004 12.357142857142859 19.071428571428573 10.910714285714286 4.5000000000000009 12.500000000000002 12.500000000000002 9.5000000000000018 12.071428571428573
decision_type=2 2 2 2 2 2 2 2 2 2 2 2 2 2 2 2 2 2 2 2 2 2 2 2 2 2 2 2 2 2
left_child=4 2 11 12 -1 6 7 -6 9 21 14 -2 13 29 -11 19 -17 -18 -19 28 -21 -3 24 25 -10 -24 27 -12 -5 -4
right_child=1 8 3 15 5 -7 -8 -9 22 10 26 -13 -14 -15 -16 16 17 18 -20 20 -22 -23 23 -25 -26 -27 -28 -29 -30 -31
leaf_value=-0.013714206375571478 -0.17970564326754324 0.020454551134822817 0.0052413703229472822 0.0089049569760082294 -0.00038139634294707492 -0.013199097432865171 -0.0077939510919046084 0.017705566421556237 -0.0052221493415114742 0.035882803207520436 0.11805232505906711 -0.0076025138770277369 -0.0052667603099622838 0.027864059831616456 0.096757309943221625 0.068245397376998959 -0.062748038111364132 0.19149233040421509 -0.013136704476369965 0.028364865495295894 0.086900828327468746 -0.13016925568467583 -0.066515686611334487 -0.11779589167663029 -0.13204018071866952 0.14129912223646879 0.12324024312748982 -0.14294834289699795 0.045080729187944049 0.17727121934294701
leaf_weight=21725 27 1402 23209 5385 4588 14469 4059 5891 284 1920 22 6791 5679 2552 207 588 136 43 62 1225 246 29 24 35 65 93 257 20 497 20
leaf_count=21725 27 1402 23209 5385 4588 14469 4059 5891 284 1920 22 6791 5679 2552 207 588 136 43 62 1225 246 29 24 35 65 93 257 20 497 20
internal_value=-7.54981e-12 0.00822545 0.00592785 0.00837215 -0.00823939 -0.00413899 0.00487811 0.00978659 0.0327198 0.0376554 0.0496021 -0.00828406 0.00528899 0.00761419 0.0418071 0.020227 0.0470618 -0.00462257 0.0706638 0.0172015 0.038154 0.0174021 -0.00527768 0.0488262 -0.0288416 0.0986704 0.105053 -0.00623371 0.0119616 0.00538949
internal_weight=101550 50818 46460 39642 50732 29007 14538 10479 4358 3857 2426 6818 31460 25781 2127 8182 829 241 105 7353 1471 1431 501 152 349 117 299 42 5882 23229
internal_count=101550 50818 46460 39642 50732 29007 14538 10479 4358 3857 2426 6818 31460 25781 2127 8182 829 241 105 7353 1471 1431 501 152 349 117 299 42 5882 23229
is_linear=0
shrinkage=0.1


Tree=33
num_leaves=31
num_cat=0
split_feature=3 4 6 3 6 6 6 6 9 6 6 2 2 8 9 4 9 8 8 1 1 8 8 1 0 4 4 8 5 1
split_gain=578.222 257.228 133.812 121.534 79.5206 203.594 78.2707 124.154 76.6009 70.1356 120.364 72.2872 72.1884 68.9908 68.2031 64.4453 65.2914 74.8612 89.0688 97.6764 83.8227 63.165 61.5787 66.9941 89.2239 81.4422 62.9391 62.3139 60.7189 68.5454
threshold=5.9285714285714297 2.3392857142857149 1.0000000180025095e-35 10.357142857142859 4.5000000000000009 3.5000000000000004 5.5000000000000009 2.5000000000000004 1.0000000180025095e-35 2.5000000000000004 5.5000000000000009 2.5000000000000004 2.5000000000000004 4.8581964982655252 1.0000000180025095e-35 5.0178571428571432 1.0000000180025095e-35 29.464321688295271 21.250942098064794 11.500000000000002 11.500000000000002 14.843010048730783 28.609272926311199 15.500000000000002 8.5000000000000018 9.3392857142857171 8.9107142857142865 43.28529882741941 8.5000000000000018 8.5000000000000018
decision_type=2 2 2 2 2 2 2 2 2 2 2 2 2 2 2 2 2 2 2 2 2 2 2 2 2 2 2 2 2 2
left_child=1 6 13 9 5 -4 7 -1 21 22 12 -12 -11 -3 -15 -14 17 18 19 -17 -20 -9 -2 25 -25 26 -24 -28 29 -27
right_child=3 2 4 -5 -6 -7 -8 8 -10 10 11 -13 15 14 -16 16 -18 -19 20 -21 -22 -23 23 24 -26 28 27 -29 -30 -31
